svm_type epsilon_svr
kernel_type rbf
gamma 0.0625
nr_class 2
total_sv 10191
rho -0.7667853998648357
SV
8.0 3:2.7969603590610674 40:1.0 
8.0 3:3.661957796547672 16:1.0 
-8.0 3:0.0515299688228566 8:1.0 
-8.0 3:1.3262107913148746 26:1.0 
8.0 3:3.2156706939192525 22:1.0 
-3.300016598716771 3:1.3456433227801656 51:1.0 
-8.0 3:1.574734114425781 63:1.0 
-8.0 3:0.048544748553725085 8:1.0 
8.0 3:4.48863636973214 44:1.0 
8.0 3:3.726496317685243 22:1.0 
-5.3245342709090595 2:1.0 3:6.687008130858274 64:1.0 
8.0 3:2.4833028002060256 39:1.0 
-2.325267738285674 48:1.0 
-8.0 3:9.201752066402937 65:1.0 
4.952857459086073 2:1.0 3:15.478388645303665 66:1.0 
-8.0 3:3.9837905245942733 40:1.0 
1.356899726338337 2:1.0 3:21.971746779286033 51:1.0 
8.0 3:13.313629179439381 16:1.0 
8.0 3:9.416128958349372 26:1.0 
-8.0 3:0.17799741136365865 8:1.0 
-1.2931063709757515 3:1.9801992225339455 27:1.0 
8.0 3:2.4455624722231786 68:1.0 
8.0 3:8.312954617973421 40:1.0 
-8.0 3:0.17799741136365865 8:1.0 
8.0 3:4.7924182238300155 69:1.0 
8.0 3:2.5843989170773947 39:1.0 
-8.0 3:2.605905122298358 27:1.0 
8.0 3:4.0556545430464 22:1.0 
8.0 2:1.0 3:6.687008130858274 16:1.0 
8.0 3:8.390881077183202 40:1.0 
8.0 3:7.323915593095344 24:1.0 
-4.2269326118567 3:0.03864747661714245 8:1.0 
8.0 3:5.048252157667562 
8.0 3:0.9792254034297516 39:1.0 
8.0 3:12.921994585386972 22:1.0 
8.0 3:0.11327107995869187 8:1.0 
-8.0 3:4.966605600412051 22:1.0 
8.0 2:1.0 3:15.478388645303665 71:1.0 
8.0 3:5.579506620852211 16:1.0 
-7.837668860213251 3:0.6115006233044343 38:1.0 
-7.255874206894272 3:0.03864747661714245 67:1.0 
-7.814819322174178 3:2.0907410969337694 64:1.0 
8.0 3:3.0333491371252976 72:1.0 
-0.5590221500585696 3:3.4388142452334622 39:1.0 
8.0 3:0.11327107995869187 70:1.0 
-8.0 1:1.0 3:12.869093037574906 40:1.0 
8.0 1:1.0 3:7.323915593095344 40:1.0 
8.0 1:1.0 3:7.739194322651833 16:1.0 
8.0 2:1.0 3:10.030512196287411 51:1.0 
-8.0 3:5.741399338227508 40:1.0 
-0.8749713134841272 3:4.825108606353353 
-0.006090956758381587 48:1.0 
-8.0 3:2.6733464030938907 22:1.0 
8.0 3:0.14563424566117525 8:1.0 
0.5951735083869525 3:17.450537698105066 44:1.0 
8.0 3:2.374103508241034 73:1.0 
8.0 3:17.450537698105066 27:1.0 
8.0 3:0.14563424566117525 8:1.0 
-8.0 3:3.8695971613259164 39:1.0 
8.0 3:5.61643438958007 39:1.0 
-8.0 3:3.490107539621013 40:1.0 
-8.0 3:3.726496317685243 40:1.0 
8.0 1:1.0 3:8.073302491978165 22:1.0 
-8.0 1:1.0 3:3.8695971613259164 40:1.0 
8.0 2:1.0 3:3.601333174731237 74:1.0 
-8.0 3:1.6223621634150358 65:1.0 
8.0 2:1.0 3:21.971746779286033 51:1.0 
8.0 3:2.4833028002060256 39:1.0 
-4.135898050280269 3:18.403504132805875 71:1.0 
-0.046621080236746035 3:0.8571742089461666 
-7.436491206104393 3:2.2604931614328256 28:1.0 
8.0 3:8.97727273946428 43:1.0 
1.4327187975973434 3:34.55038148757647 16:1.0 
-8.0 3:2.9688106159877266 69:1.0 
-8.0 3:6.434546518787453 40:1.0 
-8.0 3:2.2604931614328256 28:1.0 
8.0 3:1.1018045211820808 46:1.0 
-8.0 3:0.16747239867428393 8:1.0 
-8.0 3:2.374103508241034 26:1.0 
8.0 3:8.424651584370105 22:1.0 
8.0 3:5.77365507069587 16:1.0 
-8.0 3:18.403504132805875 63:1.0 
-4.401847072108666 3:0.49146917804185786 8:1.0 
8.0 3:11.083939490631227 16:1.0 
7.897378333158737 2:1.0 3:15.478388645303665 66:1.0 
-8.0 3:0.06441246102857075 8:1.0 
8.0 3:1.4373342450233382 
8.0 3:0.6115006233044343 38:1.0 
8.0 3:12.554838611132496 22:1.0 
8.0 3:9.285574099118795 39:1.0 
8.0 3:1.1878097228281097 29:1.0 
-8.0 3:2.3074121337423614 38:1.0 
-8.0 3:8.710209954215234 5:1.0 
-8.0 3:3.601333174731237 39:1.0 
-7.976391921160083 3:0.032154368539743926 48:1.0 
-8.0 3:7.323915593095344 63:1.0 
8.0 3:6.434546518787453 16:1.0 
8.0 3:8.91471977045571 
8.0 3:0.9622758451159784 38:1.0 
8.0 3:18.832257916698744 16:1.0 
8.0 3:0.041800679101667106 48:1.0 
8.0 3:6.134501377601958 39:1.0 
-0.0015782291398354076 48:1.0 
8.0 3:2.4833028002060256 39:1.0 
-8.0 2:1.0 3:14.647831186190688 51:1.0 
-8.0 2:1.0 3:19.30363955636236 40:1.0 
-1.3493042708301237 3:1.9801992225339455 16:1.0 67:1.0 
-8.0 3:3.9496398689994527 16:1.0 
8.0 3:1.4857866284092849 26:1.0 
8.0 3:1.2230012466088687 38:1.0 
8.0 3:4.825108606353353 22:1.0 
-6.953273106206872 3:4.825108606353353 75:1.0 
8.0 3:8.474643882902468 39:1.0 
8.0 3:5.541969745315614 64:1.0 
-8.0 3:3.619147411006364 64:1.0 67:1.0 
-8.0 2:1.0 3:12.109953737967247 39:1.0 
-1.040925647585305 3:2.144087077639062 63:1.0 
-8.0 2:1.0 3:10.985873389643016 51:1.0 
-8.0 3:7.590978378344389 40:1.0 
-8.0 3:7.452992635370486 65:1.0 
-8.0 3:0.4581956094895193 8:1.0 
8.0 3:7.62817866203048 26:1.0 
-8.0 3:3.5441747608912886 22:1.0 
8.0 3:0.7534977204776085 48:1.0 
8.0 3:6.277419305566248 16:1.0 
8.0 3:10.316442735700386 37:1.0 
8.0 3:4.582823584791841 38:1.0 
-4.796206408725193 3:1.099692101826307 60:1.0 
-8.0 3:1.059268111103288 5:1.0 
-8.0 3:3.9496398689994527 39:1.0 
1.8859748414014799 2:1.0 3:35.372667877080886 40:1.0 
8.0 3:5.705841076902592 39:1.0 
2.43395159524392 3:11.083939490631227 68:1.0 
-8.0 3:6.687008130858274 39:1.0 
8.0 3:8.97727273946428 39:1.0 
8.0 3:2.650356884869192 16:1.0 
-8.0 2:1.0 3:11.482798676455015 40:1.0 
-8.0 2:1.0 3:11.482798676455015 63:1.0 
-8.0 3:0.032206230514285374 
-8.0 3:0.16181582851241694 8:1.0 
8.0 3:5.335934230119343 27:1.0 
8.0 3:3.9496398689994527 22:1.0 
8.0 0:1.0 3:3.1023420086122493 38:1.0 
8.0 3:4.237321941451234 66:1.0 
8.0 3:6.434546518787453 39:1.0 
8.0 3:11.848919606998358 66:1.0 
-8.0 3:21.682753452470735 63:1.0 
8.0 3:2.720974452083145 63:1.0 
8.0 3:3.393724832185132 40:1.0 
8.0 3:11.875242463950906 40:1.0 
8.0 3:6.558153830214282 77:1.0 
-8.0 1:1.0 3:103.34518808809514 16:1.0 
-8.0 3:4.355104977107617 42:1.0 
-7.863850342320344 3:3.869473696914376 
-8.0 3:9.285574099118795 39:1.0 
-8.0 3:1.4658118146151833 39:1.0 
-7.082812541380331 1:1.0 3:91.86238941164012 40:1.0 
-6.2025353113259785 3:3.39002408106403 78:1.0 
-8.0 3:3.5441747608912886 39:1.0 
-8.0 3:2.4455624722231786 22:1.0 
-8.0 3:4.825108606353353 45:1.0 
8.0 3:4.131961425793407 39:1.0 
-8.0 3:1.3593727035536263 5:1.0 
8.0 3:0.3883579884298007 8:1.0 
-0.23606836730326908 3:1.0099147507951172 48:1.0 
-8.0 3:2.782242803736413 22:1.0 
8.0 3:0.061093300225513465 48:1.0 
8.0 3:9.650217212706705 66:1.0 
8.0 3:2.0278272715232 38:1.0 
8.0 3:8.710209954215234 40:1.0 
8.0 3:2.0278272715232 16:1.0 
8.0 3:3.5441747608912886 40:1.0 
8.0 2:1.0 3:6.001118628604614 63:1.0 
8.0 48:1.0 
8.0 2:1.0 3:1.4441139320087168 63:1.0 67:1.0 
-7.927100897276058 3:0.12286729451046446 8:1.0 
8.0 48:1.0 
8.0 3:3.0585434806980474 38:1.0 
8.0 3:0.4531323075329727 63:1.0 
-8.0 3:0.08360135820333421 48:1.0 
-8.0 0:1.0 3:4.614824267484723 38:1.0 
-8.0 0:1.0 3:10.170904882707307 66:1.0 
-8.0 3:7.739194322651833 16:1.0 
-8.0 3:5.335934230119343 40:1.0 
8.0 2:1.0 3:6.001118628604614 63:1.0 
-8.0 3:4.131961425793407 39:1.0 
-7.940225817336451 3:0.46328467899699055 22:1.0 
-1.227802046787076 3:0.06122672921044047 5:1.0 81:1.0 
-8.0 3:0.048544748553725085 8:1.0 
-5.040406841922737 3:3.2990523028583034 17:1.0 
-7.8742477662403765 3:0.06441246102857075 9:1.0 
8.0 48:1.0 
-5.130247695095552 3:3.601333174731237 26:1.0 
-8.0 3:2.100102911996728 27:1.0 
-1.2736594892038524 3:7.739194322651833 36:1.0 
-8.0 3:5.335934230119343 40:1.0 
-8.0 3:6.434546518787453 40:1.0 
-8.0 2:1.0 3:6.434546518787453 40:1.0 
8.0 2:1.0 3:3.661957796547672 16:1.0 
-8.0 3:0.4123115965605533 29:1.0 
-8.0 3:7.738947393828752 39:1.0 
-8.0 3:16.00780269035803 16:1.0 
-8.0 3:2.2914117923959205 16:1.0 
-8.0 3:15.798559475997811 16:1.0 67:1.0 
-8.0 3:3.726496317685243 22:1.0 
-8.0 3:6.434546518787453 39:1.0 
-8.0 3:5.335934230119343 66:1.0 
8.0 3:1.252762968495368 45:1.0 
-8.0 1:1.0 3:4.131961425793407 40:1.0 
-8.0 1:1.0 3:4.131961425793407 40:1.0 
2.7278339482970986 3:31.897572848021596 22:1.0 
-8.0 3:17.19407122616731 37:1.0 
-4.0168985414951575 3:0.23832610580571176 9:1.0 
8.0 3:5.048252157667562 35:1.0 
-0.8253631954994693 0:1.0 3:10.798905183346905 36:1.0 
8.0 3:9.285574099118795 5:1.0 
8.0 3:3.9496398689994527 5:1.0 67:1.0 
-2.597533725716027 3:2.153029316448265 51:1.0 
8.0 3:2.302685580098929 22:1.0 
8.0 3:0.533992234090976 8:1.0 
8.0 3:1.6554230256759237 27:1.0 
-8.0 3:20.72290717081455 16:1.0 
-7.970932503766205 3:7.005771606632494 29:1.0 
-8.0 3:20.72290717081455 16:1.0 
8.0 3:0.3285035512457108 10:1.0 
8.0 3:0.14791009528282206 48:1.0 
8.0 3:6.434546518787453 39:1.0 
2.4304243585979393 3:25.10967722226499 35:1.0 
-8.0 3:20.72290717081455 51:1.0 
-8.0 3:3.3054135635462423 46:1.0 
-2.0031456335418696 3:3.8695971613259164 65:1.0 
-7.998310157889053 3:7.005771606632494 29:1.0 
-8.0 3:20.72290717081455 16:1.0 
-8.0 3:8.312954617973421 27:1.0 
8.0 48:1.0 
-8.0 3:3.1023420086122493 22:1.0 
-8.0 3:18.632481588426216 66:1.0 
-8.0 3:6.434546518787453 39:1.0 
-8.0 3:20.72290717081455 17:1.0 
-8.0 3:0.6962480022259653 8:1.0 
-8.0 3:3.9588915665747053 5:1.0 
-8.0 3:2.0198295015902343 27:1.0 
8.0 3:0.3285035512457108 9:1.0 
-8.0 3:3.2990523028583034 22:1.0 
-4.592711260814362 3:1.506995440955217 22:1.0 
8.0 48:1.0 
-8.0 3:4.131961425793407 39:1.0 
8.0 48:1.0 
8.0 3:1.0052008898330123 16:1.0 
-7.186072879594547 3:2.770984872657807 63:1.0 
-8.0 3:12.395884277380222 39:1.0 
-8.0 2:1.0 3:2.5857659245695865 40:1.0 
8.0 3:8.724557982513875 73:1.0 
-8.0 2:1.0 3:5.741399338227508 40:1.0 
-8.0 2:1.0 3:3.661957796547672 16:1.0 
-8.0 3:0.27487439770703553 29:1.0 
8.0 3:0.839835139185614 48:1.0 
8.0 3:2.3074121337423614 16:1.0 
-0.5727522341903178 0:1.0 3:1.471701888527546 40:1.0 
-0.9359382561154759 3:2.0278272715232 51:1.0 
-8.0 3:8.474643882902468 63:1.0 
-8.0 1:1.0 3:4.131961425793407 40:1.0 
8.0 3:3.138709652783124 16:1.0 
-4.00751739362196 3:2.423167551157139 16:1.0 
-8.0 3:6.8776284904669245 27:1.0 
-3.523142971259517 3:2.6733464030938907 37:1.0 
-8.0 2:1.0 3:12.395884277380222 40:1.0 
8.0 3:2.9858081923562976 26:1.0 
-8.0 3:0.4398768407305228 29:1.0 
8.0 3:6.434546518787453 63:1.0 
-8.0 3:4.131961425793407 39:1.0 
-8.0 3:4.928509210470662 16:1.0 
-8.0 3:5.048252157667562 35:1.0 
-8.0 2:1.0 3:12.395884277380222 40:1.0 
-8.0 3:7.202666349462474 66:1.0 
-8.0 3:0.02250805797782075 48:1.0 
-8.0 3:1.9918952622971366 69:1.0 
-8.0 3:0.06441246102857075 26:1.0 
-8.0 3:13.06531493132285 16:1.0 
-8.0 3:4.355104977107617 63:1.0 
-0.22840537711661005 3:0.9769244517372235 51:1.0 
8.0 3:0.1382637847208989 48:1.0 
-8.0 3:3.9496398689994527 66:1.0 
0.026916799531584695 3:28.248386875048116 66:1.0 
8.0 3:1.5670120683318707 63:1.0 
-8.0 3:10.496017917685291 51:1.0 
-0.8877021083920216 3:1.2244337957761138 28:1.0 
-8.0 3:16.949287765804936 16:1.0 
-7.766861514408408 3:2.745667064673517 26:1.0 
-8.0 3:3.601333174731237 39:1.0 
8.0 3:0.1382637847208989 48:1.0 
-4.541928218782046 3:2.2914117923959205 78:1.0 
8.0 3:16.52784570317363 39:1.0 
-8.0 3:7.739194322651833 76:1.0 
-8.0 2:1.0 3:6.001118628604614 63:1.0 
8.0 3:5.702055160662686 66:1.0 
-8.0 2:1.0 3:2.5857659245695865 40:1.0 
8.0 3:2.720974452083145 40:1.0 
-8.0 1:1.0 3:4.131961425793407 40:1.0 
0.5561381681494564 1:1.0 3:33.05569140634726 66:1.0 
8.0 3:0.09967854247320618 48:1.0 
8.0 3:5.335934230119343 42:1.0 
8.0 3:3.6347513267357083 16:1.0 
8.0 3:3.4388142452334622 37:1.0 
8.0 3:35.441747608912884 22:1.0 
8.0 3:2.8612004256839882 10:1.0 
-3.4840585459998925 3:0.49146917804185786 8:1.0 
8.0 3:3.1023420086122493 26:1.0 
8.0 3:0.09967854247320618 48:1.0 
-8.0 3:0.44789288352560047 60:1.0 
8.0 3:1.834501869913303 38:1.0 
-7.048058341241434 3:3.118698391172603 47:1.0 
8.0 3:19.42092359794258 63:1.0 
8.0 2:1.0 3:10.13768634254522 63:1.0 
8.0 2:1.0 3:7.75729777370876 40:1.0 
-8.0 3:15.798559475997811 16:1.0 
8.0 3:9.04375700178149 39:1.0 
1.630202904499004 3:19.42092359794258 40:1.0 
-8.0 3:3.8695971613259164 16:1.0 67:1.0 
8.0 3:2.720974452083145 40:1.0 
-8.0 3:6.598104605716607 22:1.0 
8.0 1:1.0 3:4.131961425793407 40:1.0 
0.10892482388428978 1:1.0 3:78.50726709007473 16:1.0 
8.0 3:4.825108606353353 42:1.0 
-0.07184327729956214 3:5.541969745315614 73:1.0 
-4.292544230791697 3:4.355104977107617 39:1.0 
8.0 2:1.0 3:10.985873389643016 42:1.0 
-0.8617281634830688 3:1.9686384001328694 
-0.5582720079631349 3:2.0278272715232 36:1.0 
-8.0 3:10.496017917685291 51:1.0 
-8.0 3:3.8695971613259164 67:1.0 
-8.0 3:6.117086961396095 38:1.0 
-8.0 3:10.496017917685291 51:1.0 
-0.022515080020470625 3:3.7954891891721947 
6.956537485414696 3:23.265487953370336 40:1.0 
-8.0 3:4.916267919572136 37:1.0 
-8.0 3:0.21036057706614203 8:1.0 
-8.0 3:3.8695971613259164 22:1.0 
-8.0 3:13.469350660566164 66:1.0 
8.0 3:2.019306292630949 16:1.0 
8.0 3:1.2112018023544922 82:1.0 
8.0 3:4.681773910724751 5:1.0 
8.0 3:4.6804039131307045 5:1.0 
8.0 3:21.265048565347733 63:1.0 
-2.457445447020773 3:2.851027580331343 71:1.0 
6.30035921324094 1:1.0 3:16.52784570317363 16:1.0 
8.0 48:1.0 
8.0 3:1.158949193170052 
8.0 3:2.886827535347935 38:1.0 
-8.0 3:28.248386875048116 66:1.0 
-8.0 3:1.6154450341047593 16:1.0 
8.0 48:1.0 
-8.0 2:1.0 3:4.131961425793407 5:1.0 
8.0 2:1.0 3:3.661957796547672 5:1.0 
8.0 3:1.5670120683318707 63:1.0 
-8.0 3:7.088349521782577 16:1.0 
8.0 3:12.395884277380222 39:1.0 
-0.08512202693491289 3:4.291800638525983 10:1.0 
-8.0 3:0.3686018835313934 8:1.0 
8.0 3:4.459707798792974 40:1.0 
8.0 3:4.207626357002244 16:1.0 
8.0 3:7.8992797379989055 
8.0 3:7.62817866203048 22:1.0 
-8.0 3:0.040955764836821486 8:1.0 
8.0 3:2.0278272715232 39:1.0 
-8.0 3:0.006430873707948786 48:1.0 
8.0 3:5.741399338227508 39:1.0 
-5.432943053381061 3:2.3074121337423614 71:1.0 
-8.0 3:10.316442735700386 16:1.0 
-8.0 3:13.755256980933849 37:1.0 
-8.0 3:3.450032634950238 22:1.0 
-4.679375422624981 3:1.647054776005407 82:1.0 
-8.0 3:6.78004816212806 40:1.0 
-8.0 3:0.04508872271999952 8:1.0 
8.0 3:3.2156706939192525 40:1.0 
8.0 3:5.44194890416629 22:1.0 
-8.0 3:13.06531493132285 67:1.0 
-8.0 3:0.016077184269871963 48:1.0 
8.0 3:6.434546518787453 39:1.0 
8.0 3:7.452992635370486 40:1.0 
8.0 3:6.434546518787453 22:1.0 
-8.0 3:0.14563424566117525 8:1.0 
-8.0 3:6.434546518787453 22:1.0 
8.0 3:2.605905122298358 27:1.0 67:1.0 
-8.0 3:6.434546518787453 40:1.0 
-8.0 3:0.016077184269871963 48:1.0 
8.0 3:2.464254605235331 22:1.0 
8.0 3:5.048252157667562 40:1.0 
-8.0 3:0.8623924866096887 8:1.0 
-0.0042182929818459225 3:0.04508872271999952 10:1.0 
-5.743297936577125 3:1.8293763327993617 37:1.0 
-8.0 3:2.3074121337423614 38:1.0 
-0.3783304201616126 3:0.7274362540385775 32:1.0 
-0.13335486293527285 3:3.359340556742456 48:1.0 
-8.0 3:4.818389656104608 16:1.0 
-0.020608775971427466 3:1.9236870122706031 45:1.0 
-0.4785153924172679 3:1.601182656014918 28:1.0 
-8.0 3:5.048252157667562 16:1.0 
8.0 3:7.452992635370486 39:1.0 
8.0 3:4.891124944446357 5:1.0 
-8.0 3:36.18158483908353 16:1.0 
-8.0 3:30.363913513377558 37:1.0 
5.5602730729059395 3:10.096504315335125 37:1.0 80:1.0 
-8.0 3:5.741399338227508 40:1.0 
-5.5038148635564825 3:0.08360135820333421 48:1.0 
-8.0 3:3.7954891891721947 39:1.0 
-7.0092056634435655 3:1.4509398970791167 5:1.0 67:1.0 
-7.933129476891346 3:3.359340556742456 48:1.0 
-8.0 3:4.131961425793407 73:1.0 
-2.9506120539359784 3:2.442311129343059 22:1.0 
-0.49215997040201265 3:4.355104977107617 45:1.0 
-8.0 3:4.614824267484723 16:1.0 
-1.3162627134045741 3:2.9688106159877266 33:1.0 
-0.25646049120443054 3:3.661957796547672 37:1.0 
-8.0 3:10.976257996796171 85:1.0 
7.134169028587216 3:17.488410213904753 40:1.0 
-8.0 3:0.08360135820333421 48:1.0 
-8.0 3:2.886827535347935 38:1.0 
8.0 3:4.48863636973214 39:1.0 
8.0 3:9.647012081757758 86:1.0 
8.0 3:14.647831186190688 16:1.0 
-8.0 3:0.032206230514285374 8:1.0 
-8.0 3:6.434546518787453 40:1.0 
-8.0 3:19.30363955636236 40:1.0 
-8.0 3:12.921994585386972 22:1.0 
8.0 3:1.8394266686528633 67:1.0 
8.0 3:4.372102553476188 40:1.0 
1.4172594901020223 3:19.30363955636236 39:1.0 
8.0 3:1.613850810193632 53:1.0 
0.14472651559931138 3:14.844053079938632 22:1.0 
8.0 3:3.176449980765971 39:1.0 
8.0 3:0.08090791425620847 25:1.0 
8.0 3:6.826990306283344 24:1.0 
8.0 3:4.372102553476188 40:1.0 
8.0 48:1.0 
8.0 3:4.036651245989082 40:1.0 
8.0 3:3.5441747608912886 40:1.0 
8.0 3:3.661957796547672 16:1.0 
8.0 3:3.1023420086122493 26:1.0 
-8.0 3:4.642787049559398 38:1.0 
8.0 3:15.798559475997811 39:1.0 
8.0 3:11.752155829283891 22:1.0 
8.0 48:1.0 
8.0 48:1.0 
-8.0 3:4.782990501905806 66:1.0 
8.0 3:0.12286729451046446 8:1.0 
-7.528486202025146 3:1.9686384001328694 36:1.0 
-8.0 3:8.073859936680993 16:1.0 
-5.6107764549284935 3:2.6968769005040847 
-8.0 3:3.0287895039181514 22:1.0 
-8.0 3:2.222443139954261 16:1.0 
-8.0 3:3.4388142452334622 40:1.0 
8.0 3:9.307026025836748 43:1.0 
7.780529706337599 3:14.905985270740972 72:1.0 
1.9712379203730201 3:29.583624660561156 22:1.0 
-8.0 2:1.0 3:6.434546518787453 63:1.0 
-8.0 2:1.0 3:5.741399338227508 42:1.0 
-8.0 3:14.013483173500731 16:1.0 
8.0 3:0.6310817311984261 8:1.0 
-8.0 3:0.2769735824228542 27:1.0 
-8.0 3:17.22419801468252 40:1.0 
-8.0 2:1.0 3:2.4455624722231786 40:1.0 
-8.0 3:5.048252157667562 63:1.0 
-5.545193428412593 1:1.0 3:52.47646619785807 42:1.0 67:1.0 
-2.176359197835754 3:0.30767733467326813 12:1.0 
8.0 3:3.3792287808484063 16:1.0 
8.0 3:0.032206230514285374 10:1.0 
8.0 3:1.8701983273196168 45:1.0 
8.0 3:7.202666349462474 40:1.0 
8.0 3:7.452992635370486 40:1.0 
8.0 3:3.726496317685243 40:1.0 
8.0 3:4.48863636973214 74:1.0 
-8.0 3:25.738186075149812 41:1.0 
8.0 3:0.8777184570879153 45:1.0 
-8.0 3:4.48863636973214 
-8.0 3:2.908185994171292 40:1.0 
-4.115666631910156 3:6.204684017224499 44:1.0 
-8.0 3:0.048544748553725085 8:1.0 
1.2975715327323686E-4 3:20.56627270124681 22:1.0 
-8.0 3:12.269002755203916 39:1.0 
8.0 3:4.459707798792974 40:1.0 
8.0 3:4.207626357002244 16:1.0 
-7.810425188125531 3:0.12286729451046446 8:1.0 
8.0 3:3.869473696914376 
-0.006136704200443374 48:1.0 
-3.4200468673898046 3:1.5517445962010823 51:1.0 
8.0 3:2.144087077639062 5:1.0 
8.0 3:3.067250688800979 39:1.0 
8.0 3:5.741399338227508 39:1.0 
8.0 3:0.06472633140496678 8:1.0 
8.0 3:2.200440014190194 27:1.0 
8.0 3:10.316442735700386 27:1.0 
8.0 3:7.8992797379989055 22:1.0 
-8.0 3:2.3074121337423614 27:1.0 
8.0 3:1.3656423165672216 8:1.0 
-8.0 3:13.755256980933849 16:1.0 
-8.0 3:3.450032634950238 22:1.0 
-7.912827460009161 3:2.2448917767610275 73:1.0 
-8.0 3:6.78004816212806 40:1.0 
-2.972536812719485 3:1.647054776005407 82:1.0 
-0.020231348433924892 48:1.0 
-8.0 3:4.131961425793407 39:1.0 
5.393465295868547 3:35.54675882099507 40:1.0 
-8.0 3:5.741399338227508 40:1.0 
-8.0 3:6.434546518787453 40:1.0 
3.597767125577345 3:24.455624722231786 40:1.0 
8.0 3:7.202666349462474 40:1.0 
8.0 3:2.908185994171292 57:1.0 67:1.0 
8.0 3:7.452992635370486 40:1.0 
-0.024035193904810792 3:4.0314118219817106 
-8.0 3:4.036651245989082 73:1.0 
-8.0 3:10.671868460238686 40:1.0 
8.0 3:2.720974452083145 63:1.0 
-8.0 3:9.782249888892714 40:1.0 
-8.0 3:13.960430158484051 63:1.0 67:1.0 
8.0 3:5.816371988342584 40:1.0 
-1.439399091045951 3:3.9496398689994527 67:1.0 
8.0 3:6.204684017224499 16:1.0 
8.0 3:2.4833028002060256 73:1.0 
0.2820650929165022 3:19.674461490642848 40:1.0 
8.0 3:9.285574099118795 66:1.0 
-8.0 3:6.434546518787453 40:1.0 
-8.0 3:4.48863636973214 16:1.0 
8.0 3:3.7954891891721947 39:1.0 
8.0 3:6.431341387838505 42:1.0 
8.0 3:1.3046478038643796 
8.0 3:0.08090791425620847 8:1.0 
-8.0 3:2.103813178501122 27:1.0 
-8.0 3:8.162923356249436 22:1.0 
-6.662287001452938 1:1.0 3:9.650217212706705 85:1.0 
-5.237694422954193 0:1.0 3:2.2914117923959205 63:1.0 
8.0 3:2.453326263362646 16:1.0 
8.0 48:1.0 
8.0 3:8.637595371894118 66:1.0 
8.0 2:1.0 3:12.395884277380222 41:1.0 
8.0 3:0.4285871044730833 
-0.33006932690520446 3:4.291800638525983 10:1.0 
8.0 3:5.040151704384712 8:1.0 
-8.0 3:4.642787049559398 26:1.0 
-2.4071003285478363 3:1.6453274620118925 45:1.0 
8.0 3:9.843192000664347 77:1.0 
-8.0 3:8.576348310556249 39:1.0 
8.0 48:1.0 
-0.3257208696250074 3:1.0874389880699844 5:1.0 
4.442321232855125 3:43.551049771076165 16:1.0 
-8.0 3:0.4581956094895193 8:1.0 
-8.0 3:1.9572097043092467 26:1.0 
8.0 3:0.09661869154285613 9:1.0 
8.0 3:4.2123257921850525 26:1.0 
8.0 3:0.17799741136365865 8:1.0 
8.0 3:3.0333491371252976 27:1.0 
-1.3668475187837315 3:0.02250805797782075 48:1.0 
8.0 3:2.937676210289255 39:1.0 
8.0 3:5.758396914596079 40:1.0 
8.0 3:8.263922851586814 22:1.0 
8.0 3:4.928509210470662 40:1.0 
-4.019008929130903 3:5.335934230119343 41:1.0 
8.0 48:1.0 
-8.0 3:13.25178442434596 39:1.0 
8.0 3:20.15438920108628 39:1.0 
2.740741090846627 3:27.60525619920881 86:1.0 
8.0 3:4.2123257921850525 84:1.0 
-0.01844430739500477 3:1.9686384001328694 36:1.0 
8.0 3:0.09661869154285613 9:1.0 
-8.0 3:16.52784570317363 40:1.0 
-8.0 3:2.938038957320973 40:1.0 
-8.0 3:9.857018420941325 16:1.0 
8.0 48:1.0 
-8.0 3:2.8791984572980396 40:1.0 
-8.0 3:2.464254605235331 22:1.0 
8.0 48:1.0 
-4.312511239180793 3:34.840839816860935 64:1.0 
8.0 48:1.0 
-8.0 3:3.3966961407859153 39:1.0 
8.0 3:33.73975757681077 64:1.0 67:1.0 
-8.0 3:2.3074121337423614 66:1.0 
8.0 48:1.0 
8.0 48:1.0 
-0.3451357475530082 3:1.9572097043092467 89:1.0 
8.0 48:1.0 
7.879421288394489 3:33.73975757681077 22:1.0 
8.0 3:0.8815869338658356 16:1.0 
-5.024942059897847 3:0.12245345842088094 
8.0 48:1.0 
-1.7504812486658752 3:0.839835139185614 8:1.0 
8.0 3:5.748497801135655 26:1.0 
8.0 3:9.201752066402937 16:1.0 67:1.0 
8.0 3:8.637595371894118 39:1.0 
8.0 3:33.73975757681077 22:1.0 
8.0 48:1.0 
-8.0 3:7.951070654607577 39:1.0 
8.0 3:4.966605600412051 90:1.0 
8.0 48:1.0 
1.4500555798985932 3:20.632885471400773 40:1.0 
8.0 3:3.2564926884395073 16:1.0 
8.0 3:5.045047026718614 
8.0 48:1.0 
3.541466342124971 3:20.632885471400773 40:1.0 
-8.0 3:7.452992635370486 22:1.0 
8.0 3:2.3074121337423614 38:1.0 
8.0 3:2.644760801597507 77:1.0 
8.0 3:0.22654215991738375 8:1.0 
8.0 48:1.0 
8.0 3:7.392763815705994 27:1.0 
8.0 3:12.269002755203916 40:1.0 
8.0 3:13.25178442434596 39:1.0 
8.0 3:4.131961425793407 22:1.0 
8.0 3:3.138709652783124 43:1.0 
-8.0 3:4.642787049559398 16:1.0 
8.0 0:1.0 3:2.5843989170773947 38:1.0 
8.0 3:0.041800679101667106 48:1.0 
0.8608921858867954 3:27.60525619920881 66:1.0 
8.0 3:0.041800679101667106 48:1.0 
-8.0 3:4.237321941451234 26:1.0 
-8.0 3:4.237321941451234 74:1.0 
8.0 3:0.041800679101667106 48:1.0 
-1.4936059189246151 3:2.8791984572980396 66:1.0 
-8.0 3:3.4388142452334622 40:1.0 
-0.30858871627559187 2:1.0 3:8.263922851586814 41:1.0 
8.0 3:9.650217212706705 
7.119860536814588 1:1.0 3:25.738186075149812 16:1.0 
8.0 2:1.0 3:12.409368034448997 51:1.0 
8.0 3:3.661957796547672 22:1.0 
-8.0 3:9.285574099118795 67:1.0 74:1.0 
8.0 3:4.48863636973214 74:1.0 
0.36347229976063344 3:27.60525619920881 40:1.0 
-8.0 3:1.590359432328862 43:1.0 
8.0 3:5.741399338227508 40:1.0 
8.0 3:11.516793829192158 39:1.0 
1.0598212045688482 3:21.202855078953537 39:1.0 
-0.07531970749079644 3:2.1304814255832834 45:1.0 
-8.0 3:5.335934230119343 22:1.0 
8.0 3:6.78004816212806 37:1.0 
8.0 3:11.516793829192158 39:1.0 
8.0 3:4.355104977107617 16:1.0 
8.0 3:1.374586828468558 8:1.0 
8.0 3:1.916165933711885 
8.0 3:2.6968769005040847 45:1.0 
8.0 3:2.200440014190194 65:1.0 
-8.0 3:0.019292621123846356 48:1.0 
-8.0 3:4.036651245989082 73:1.0 
-8.0 3:0.019292621123846356 48:1.0 
8.0 3:0.09708949710745017 70:1.0 
-8.0 3:6.277419305566248 24:1.0 
8.0 3:3.2990523028583034 39:1.0 
8.0 3:3.8695971613259164 66:1.0 
8.0 3:2.851027580331343 39:1.0 
-8.0 2:1.0 3:6.434546518787453 66:1.0 
8.0 3:7.8992797379989055 39:1.0 
8.0 3:2.5633455078795624 40:1.0 
8.0 3:1.9572097043092467 40:1.0 
8.0 1:1.0 3:25.738186075149812 16:1.0 
8.0 2:1.0 3:4.355104977107617 40:1.0 
8.0 3:1.2640625237493013 40:1.0 
8.0 1:1.0 3:20.19300863067025 16:1.0 67:1.0 
-0.5055883829649325 3:1.9686384001328694 36:1.0 
-8.0 3:1.6809563276810884 
-8.0 3:0.016077184269871963 48:1.0 
-8.0 3:8.263922851586814 22:1.0 
8.0 3:8.97727273946428 65:1.0 
-8.0 3:7.817715366895074 77:1.0 
8.0 3:10.601427539476768 39:1.0 
8.0 3:15.336253444004894 66:1.0 
6.253436320889148 3:20.15438920108628 39:1.0 
-8.0 3:6.8776284904669245 40:1.0 
8.0 3:7.8992797379989055 39:1.0 
8.0 2:1.0 3:12.13339654850119 63:1.0 
8.0 3:1.111536539649045 
8.0 48:1.0 
0.01968267500437528 3:69.68167963372187 23:1.0 
8.0 3:4.237321941451234 39:1.0 
8.0 3:3.601333174731237 39:1.0 
8.0 48:1.0 
8.0 3:1.842235545244942 39:1.0 
8.0 3:11.848919606998358 63:1.0 
8.0 3:2.4283813874182565 22:1.0 
8.0 3:5.87535242057851 39:1.0 
8.0 48:1.0 
8.0 3:4.036651245989082 40:1.0 
8.0 3:3.39002408106403 16:1.0 
8.0 3:4.355104977107617 40:1.0 
8.0 3:2.957438922372385 40:1.0 
-2.3633751102336706 0:1.0 3:1.7431986365583094 66:1.0 
-8.0 3:2.5027208860631274 
8.0 3:0.028938931685769536 48:1.0 
8.0 3:21.202855078953537 39:1.0 
8.0 3:11.516793829192158 39:1.0 
8.0 3:21.470754821606853 16:1.0 
8.0 3:0.839835139185614 8:1.0 
8.0 3:5.048252157667562 33:1.0 
8.0 3:2.720974452083145 26:1.0 
8.0 3:8.553082740994029 39:1.0 
8.0 3:6.311439535503366 74:1.0 
-0.615433177334187 3:4.131961425793407 91:1.0 
-8.0 3:4.825108606353353 39:1.0 67:1.0 
8.0 48:1.0 
8.0 3:2.8791984572980396 16:1.0 
-1.0460055629774818 2:1.0 3:8.263922851586814 41:1.0 
-0.05271296696396499 3:3.601333174731237 
8.0 48:1.0 
8.0 3:8.97727273946428 22:1.0 
8.0 48:1.0 
8.0 3:9.650217212706705 39:1.0 
8.0 3:9.201752066402937 40:1.0 
8.0 3:2.8791984572980396 40:1.0 
8.0 48:1.0 
8.0 3:4.131961425793407 63:1.0 
-7.849443023123108 3:5.335934230119343 41:1.0 
-8.0 3:11.516793829192158 39:1.0 
8.0 48:1.0 
-8.0 3:8.710209954215234 39:1.0 
8.0 63:1.0 67:1.0 
-8.0 3:3.7954891891721947 39:1.0 
-8.0 3:8.415252714004488 39:1.0 
-8.0 3:0.016077184269871963 48:1.0 
8.0 3:2.937676210289255 39:1.0 
8.0 3:7.8992797379989055 77:1.0 
8.0 48:1.0 
-8.0 3:5.6472572122864575 22:1.0 
-8.0 3:8.710209954215234 39:1.0 
8.0 3:2.464254605235331 39:1.0 
8.0 3:2.200440014190194 42:1.0 
8.0 3:1.9236870122706031 
8.0 3:5.758396914596079 66:1.0 
-8.0 3:13.25178442434596 39:1.0 
8.0 3:0.16747239867428393 8:1.0 
8.0 3:11.848919606998358 22:1.0 
8.0 3:5.876077914641946 26:1.0 
8.0 3:11.848919606998358 39:1.0 
8.0 3:1.316552706370698 16:1.0 
8.0 3:0.4285871044730833 
8.0 3:1.454872508077155 32:1.0 
8.0 3:0.09017744543999905 26:1.0 
8.0 3:1.096884974674595 33:1.0 
-8.0 2:1.0 3:11.516793829192158 74:1.0 
8.0 48:1.0 
-8.0 3:7.951070654607577 39:1.0 
8.0 3:11.516793829192158 39:1.0 
0.4525565306881727 3:12.269002755203916 92:1.0 
8.0 48:1.0 
8.0 3:3.39002408106403 16:1.0 
-8.0 3:1.6305254740541966 39:1.0 
8.0 48:1.0 
8.0 3:9.285574099118795 66:1.0 
8.0 3:11.516793829192158 39:1.0 
-8.0 3:0.02250805797782075 48:1.0 
8.0 3:0.09017744543999905 10:1.0 
8.0 3:1.9245516902319568 62:1.0 
-8.0 3:9.04375700178149 39:1.0 
-8.0 3:9.04375700178149 39:1.0 
-4.604299523909367 3:6.78004816212806 62:1.0 67:1.0 
-8.0 2:1.0 3:12.711965824353701 40:1.0 
-8.0 3:10.325493331602157 40:1.0 
8.0 3:10.930256383690471 36:1.0 
8.0 3:5.085452441353653 16:1.0 
8.0 3:0.27508690847110884 8:1.0 
8.0 3:3.937276800265739 27:1.0 
-1.318907403139303 3:1.2211555646715295 51:1.0 
8.0 3:3.490107539621013 22:1.0 
8.0 3:6.512985376879015 66:1.0 
-8.0 3:3.4388142452334622 39:1.0 
-8.0 3:3.9496398689994527 39:1.0 
-8.0 3:0.016077184269871963 48:1.0 
-8.0 3:1.635550842241764 16:1.0 
0.4338327593987833 3:43.44603855899398 40:1.0 
-0.003246228207430351 48:1.0 
8.0 3:8.390881077183202 40:1.0 
8.0 3:6.195295998961295 40:1.0 
8.0 3:6.558153830214282 40:1.0 
0.5926739997275765 3:27.64747908299617 66:1.0 
-0.7695025981435273 3:4.48863636973214 45:1.0 
8.0 3:4.131961425793407 
8.0 3:10.096504315335125 39:1.0 
8.0 3:2.2624832214567547 16:1.0 
8.0 3:0.5939048614140549 29:1.0 
8.0 3:0.37217640557855897 8:1.0 
8.0 3:2.200440014190194 5:1.0 
8.0 3:3.490107539621013 74:1.0 
-8.0 3:4.036651245989082 37:1.0 
-1.1392403422890727 3:1.9572097043092467 43:1.0 
8.0 3:2.0650986663204316 40:1.0 
8.0 3:2.186051276738094 40:1.0 
8.0 3:3.9496398689994527 22:1.0 
8.0 3:1.7554369141758306 53:1.0 
8.0 3:0.518344456180018 51:1.0 
8.0 3:2.3074121337423614 39:1.0 
8.0 3:3.601333174731237 24:1.0 
8.0 3:5.335934230119343 39:1.0 
8.0 3:4.48863636973214 40:1.0 
8.0 3:3.2156706939192525 33:1.0 
8.0 3:8.263922851586814 
8.0 3:2.409194828052304 38:1.0 
8.0 3:5.816371988342584 74:1.0 
8.0 3:2.851027580331343 40:1.0 
8.0 3:4.48863636973214 16:1.0 
-7.93461923561134 3:3.542214849350772 
8.0 3:0.048544748553725085 8:1.0 
8.0 3:3.2564926884395073 27:1.0 
8.0 3:1.9245516902319568 38:1.0 
8.0 3:2.5843989170773947 22:1.0 
8.0 3:0.048544748553725085 8:1.0 
8.0 3:0.9792254034297516 39:1.0 
8.0 3:2.0650986663204316 40:1.0 
8.0 2:1.0 3:4.237321941451234 40:1.0 
8.0 3:7.8992797379989055 66:1.0 
8.0 3:4.372102553476188 40:1.0 
8.0 3:0.839835139185614 8:1.0 
8.0 3:6.434546518787453 16:1.0 
-1.0892982648160316 3:2.2150388136113466 37:1.0 
8.0 3:3.2564926884395073 73:1.0 
8.0 2:1.0 3:3.601333174731237 40:1.0 
0.9099111059248297 3:2.8236286061432287 75:1.0 
-8.0 3:0.041800679101667106 48:1.0 
-8.0 3:4.2123257921850525 39:1.0 
-8.0 3:5.741399338227508 40:1.0 
8.0 3:3.138709652783124 39:1.0 
8.0 3:8.90643184796318 36:1.0 
8.0 3:11.17948895305573 16:1.0 
-8.0 3:14.455690664243022 40:1.0 
-8.0 3:6.558153830214282 73:1.0 
-8.0 3:8.97727273946428 40:1.0 
-4.758537484853314 3:4.642787049559398 68:1.0 
-1.5145409179292502 3:2.272458304478833 37:1.0 
8.0 3:5.335934230119343 39:1.0 
8.0 3:2.0016490304664267 29:1.0 
8.0 3:12.409368034448997 22:1.0 
-8.0 3:4.036929968340496 16:1.0 
8.0 3:10.632524282673867 39:1.0 
-8.0 3:4.131961425793407 43:1.0 
8.0 3:1.6142649531824163 69:1.0 
-0.0037049556131104585 48:1.0 
-8.0 3:14.455690664243022 57:1.0 
-8.0 3:14.041211739392114 16:1.0 
-8.0 3:4.036929968340496 51:1.0 
8.0 3:5.593920718122135 40:1.0 
-8.0 3:1.2928829622847933 
8.0 3:7.62817866203048 16:1.0 
8.0 2:1.0 3:3.176449980765971 40:1.0 
-5.513425065254343 3:2.886827535347935 73:1.0 
-8.0 3:4.131961425793407 77:1.0 
8.0 3:8.7056393824747 
-8.0 2:1.0 3:4.48863636973214 77:1.0 
8.0 3:8.68746656698455 93:1.0 
-8.0 3:7.449908400618076 22:1.0 
-8.0 3:8.073302491978165 80:1.0 93:1.0 
-6.789920926460992 3:3.7196710805681406 17:1.0 
8.0 3:0.2898560746285684 9:1.0 
8.0 3:12.711965824353701 37:1.0 
-4.4217368360305045 3:4.036651245989082 36:1.0 
8.0 3:2.7969603590610674 40:1.0 
8.0 3:6.195295998961295 40:1.0 
8.0 3:6.558153830214282 66:1.0 
8.0 3:5.085452441353653 16:1.0 
8.0 3:2.6278840290171335 16:1.0 67:1.0 
8.0 3:2.657202089773745 26:1.0 
8.0 3:0.08090791425620847 8:1.0 
8.0 3:5.705841076902592 27:1.0 
8.0 2:1.0 3:3.601333174731237 22:1.0 
8.0 3:1.4578127763668787 39:1.0 
8.0 3:1.059268111103288 36:1.0 
-8.0 3:1.635550842241764 16:1.0 
-8.0 3:12.711965824353701 40:1.0 
8.0 3:6.558153830214282 40:1.0 
8.0 3:6.195295998961295 40:1.0 
-8.0 3:0.06122672921044047 
-1.435036515573522 3:7.8992797379989055 72:1.0 
8.0 3:1.9019470256341973 8:1.0 
8.0 3:3.138709652783124 26:1.0 
-8.0 3:0.02250805797782075 48:1.0 
8.0 3:8.390881077183202 40:1.0 
8.0 3:6.195295998961295 40:1.0 
8.0 3:4.372102553476188 40:1.0 
8.0 3:5.491334129347034 73:1.0 
8.0 3:2.5427262206768266 43:1.0 
-8.0 3:2.720974452083145 22:1.0 
8.0 3:6.512985376879015 66:1.0 
8.0 2:1.0 3:8.474643882902468 40:1.0 
-8.0 3:6.434546518787453 39:1.0 
1.9037499639222493 2:1.0 3:25.209332223118658 66:1.0 
8.0 2:1.0 3:1.4441139320087168 40:1.0 
-8.0 3:0.02250805797782075 48:1.0 
8.0 3:2.6278840290171335 16:1.0 
8.0 2:1.0 3:16.949287765804936 40:1.0 
-8.0 3:4.130197332640863 40:1.0 
8.0 3:4.372102553476188 40:1.0 
8.0 3:11.848919606998358 66:1.0 
-8.0 3:5.741399338227508 22:1.0 
8.0 3:2.886827535347935 73:1.0 
8.0 3:11.848919606998358 51:1.0 
8.0 3:3.8695971613259164 71:1.0 
8.0 3:2.6278840290171335 16:1.0 
-8.0 2:1.0 3:16.949287765804936 40:1.0 
8.0 3:4.130197332640863 40:1.0 
8.0 3:4.372102553476188 40:1.0 
8.0 3:11.848919606998358 66:1.0 
-8.0 3:5.741399338227508 22:1.0 
8.0 3:2.886827535347935 73:1.0 
-8.0 3:16.949287765804936 40:1.0 
8.0 3:11.848919606998358 51:1.0 
8.0 3:3.8695971613259164 71:1.0 
-8.0 3:56.51311744384715 40:1.0 
-5.25647357545845 3:80.772034522681 5:1.0 
-8.0 3:5.702055160662686 94:1.0 
-8.0 2:1.0 3:6.351175215753427 40:1.0 
0.04294900491660474 3:64.48077181151751 65:1.0 
1.5673873541857817 3:80.71951928019516 57:1.0 
-5.367600456364689 3:11.71786575369162 48:1.0 
-8.0 3:61.57559652340714 66:1.0 
3.872179809149478 3:4.000957108148581 52:1.0 
-5.783468338033071 0:1.0 3:8.25495309532139 77:1.0 
8.0 3:0.6570071024914216 
0.1331966575448711 3:178.00146942099215 22:1.0 
-8.0 3:6.204684017224499 78:1.0 
8.0 3:6.793392281571831 39:1.0 
-8.0 3:12.947282398628387 45:1.0 
8.0 3:5.702055160662686 16:1.0 
8.0 3:2.200440014190194 43:1.0 
6.525671748401078 3:18.57114819823759 22:1.0 
8.0 0:1.0 3:3.726496317685243 36:1.0 
8.0 0:1.0 3:2.5027208860631274 38:1.0 
-0.3448570904413716 3:1.0318691369151738 65:1.0 67:1.0 
-8.0 3:1.7901556196460804 5:1.0 
-8.0 3:1.5593491955863015 26:1.0 
-8.0 3:1.6223621634150358 39:1.0 
-8.0 3:7.8836520870514 16:1.0 
-8.0 3:7.753196751232184 39:1.0 
0.4869373723888475 3:22.577718725249287 40:1.0 
-8.0 3:3.9496581191120943 16:1.0 67:1.0 
-8.0 3:1.2928829622847933 
8.0 3:11.312416107283774 40:1.0 
-8.0 3:6.011189159832419 40:1.0 
8.0 3:8.020039209281672 39:1.0 
8.0 3:31.023420086122492 39:1.0 
8.0 3:19.30043442541341 16:1.0 
8.0 3:0.2912684913223505 8:1.0 
-8.0 3:10.671868460238686 27:1.0 
8.0 0:1.0 3:15.144756473002687 63:1.0 
-8.0 3:5.048252157667562 27:1.0 
8.0 3:0.2912684913223505 8:1.0 
-8.0 3:6.434546518787453 39:1.0 
8.0 3:8.390881077183202 22:1.0 
8.0 3:9.843192000664347 39:1.0 
-8.0 3:20.061024392574822 66:1.0 
8.0 3:8.020039209281672 39:1.0 
8.0 3:6.434546518787453 40:1.0 
-8.0 3:6.011189159832419 40:1.0 
8.0 3:21.411712088070292 16:1.0 
-8.0 3:10.976257996796171 37:1.0 
-8.0 3:42.40571015790707 16:1.0 
-8.0 3:0.4369027369835258 8:1.0 
-8.0 3:13.984801795305337 27:1.0 
-8.0 3:28.489242098892408 22:1.0 
-8.0 3:45.155437450498574 40:1.0 
-8.0 3:8.97727273946428 74:1.0 
-8.0 3:12.86268277567701 26:1.0 
-8.0 3:10.551049835411739 39:1.0 
-8.0 3:12.443657718012151 40:1.0 
-8.0 3:45.155437450498574 66:1.0 
8.0 3:6.134501377601958 40:1.0 
8.0 3:4.430077627222693 
8.0 3:10.982668258694067 16:1.0 
8.0 3:10.262599420567858 51:1.0 
8.0 3:15.511710043061246 63:1.0 
-8.0 3:7.8992797379989055 77:1.0 
8.0 1:1.0 3:50.847863297414804 16:1.0 
-8.0 3:0.3686018835313934 8:1.0 
-8.0 3:5.771061036811809 
-8.0 3:3.0291311859186565 22:1.0 
8.0 3:8.020039209281672 66:1.0 67:1.0 
-0.4521698873346701 3:1.2987480817371913 45:1.0 
-8.0 3:2.302685580098929 29:1.0 
8.0 3:6.066698274250595 66:1.0 67:1.0 
-8.0 3:5.335934230119343 40:1.0 
-8.0 2:1.0 3:2.4833028002060256 40:1.0 
-8.0 1:1.0 3:5.758396914596079 16:1.0 
-8.0 3:3.0291311859186565 22:1.0 
-8.0 3:6.434546518787453 39:1.0 
1.2991634683838291 3:31.5346083482056 39:1.0 
8.0 3:5.346692806187781 66:1.0 
-8.0 3:0.019292621123846356 48:1.0 
-8.0 3:2.6733464030938907 16:1.0 
8.0 3:0.21036057706614203 8:1.0 
8.0 3:3.601333174731237 44:1.0 
-8.0 3:7.918691275098642 22:1.0 
8.0 3:0.3556406318354295 52:1.0 
8.0 3:16.00780269035803 39:1.0 
8.0 3:10.511536116068534 39:1.0 
8.0 3:8.020039209281672 39:1.0 
8.0 3:6.204684017224499 16:1.0 
-8.0 3:1.771107424675386 37:1.0 
-8.0 3:0.019292621123846356 48:1.0 
8.0 3:4.48863636973214 22:1.0 
-8.0 3:2.720974452083145 
-8.0 3:4.38753989869838 8:1.0 
-1.0620906108663375 3:8.97727273946428 33:1.0 
-2.5442696764438684 3:10.337595668309579 74:1.0 
-8.0 0:1.0 3:4.131961425793407 63:1.0 
-8.0 1:1.0 3:6.434546518787453 16:1.0 
8.0 3:8.724557982513875 40:1.0 
-8.0 3:4.237321941451234 42:1.0 
-4.045337785635639 3:1.1513427900494646 
-8.0 3:5.741399338227508 74:1.0 
-8.0 3:12.443657718012151 51:1.0 
-8.0 3:3.661957796547672 22:1.0 
-8.0 3:3.792187571247904 40:1.0 
-8.0 3:12.395884277380222 40:1.0 
6.685421406932991 1:1.0 3:26.0854742237967 77:1.0 
-8.0 1:1.0 3:8.637595371894118 40:1.0 
-2.0347479179513424 3:7.796745977931508 95:1.0 
-8.0 3:10.511536116068534 39:1.0 
3.996326748606133 3:31.023420086122492 22:1.0 
-8.0 0:1.0 3:8.474643882902468 40:1.0 
-0.27303109000708725 3:2.5843989170773947 67:1.0 95:1.0 
-8.0 0:1.0 3:12.045974140261519 63:1.0 
-8.0 3:2.851027580331343 22:1.0 
-8.0 3:12.443657718012151 77:1.0 
-8.0 3:9.650217212706705 40:1.0 
-8.0 3:6.434546518787453 39:1.0 
-0.25932444475316896 3:1.9918952622971366 45:1.0 
-8.0 3:15.511710043061246 16:1.0 
-6.982062963088263 3:3.4388142452334622 37:1.0 67:1.0 
-8.0 3:6.434546518787453 39:1.0 
-8.0 3:6.434546518787453 22:1.0 
8.0 3:0.14814866036571273 10:1.0 
0.6145490522872334 1:1.0 3:11.17948895305573 16:1.0 
-8.0 3:3.6655648759161545 8:1.0 
3.6660302429323663 1:1.0 3:29.661253590158637 16:1.0 67:1.0 
-8.0 3:15.511710043061246 63:1.0 
8.0 2:1.0 3:1.4441139320087168 39:1.0 
-8.0 3:10.693385612375563 39:1.0 
-8.0 3:3.2990523028583034 40:1.0 
8.0 1:1.0 3:4.642787049559398 40:1.0 
-3.5318469740760934 3:2.770984872657807 
8.0 3:5.346692806187781 39:1.0 
8.0 3:2.720974452083145 97:1.0 
8.0 3:3.87864888685438 40:1.0 
8.0 3:5.816371988342584 40:1.0 
8.0 3:7.088349521782577 40:1.0 
8.0 3:6.204684017224499 27:1.0 
-8.0 3:4.343733283492275 63:1.0 
-8.0 3:10.262599420567858 77:1.0 
-5.1157041392038085 3:2.0157059109908553 43:1.0 
-8.0 3:1.8293763327993617 
-6.914756078574036 3:6.598104605716607 43:1.0 
8.0 3:5.346692806187781 39:1.0 
6.355552753215596 3:21.366931574169307 22:1.0 
8.0 2:1.0 3:11.635946660563139 40:1.0 
0.08703752073528923 3:28.810665397849895 99:1.0 
8.0 3:0.9780117375474311 52:1.0 
-8.0 3:5.656208053641887 22:1.0 
-8.0 3:0.012861747415897571 48:1.0 
-8.0 3:3.343504065429137 22:1.0 
8.0 3:2.908185994171292 17:1.0 
8.0 3:5.346692806187781 39:1.0 
8.0 3:9.496414032964136 17:1.0 67:1.0 
-8.0 3:0.0772949532342849 8:1.0 
-8.0 3:0.0772949532342849 9:1.0 
-8.0 3:0.012861747415897571 48:1.0 
8.0 3:10.096504315335125 39:1.0 
8.0 2:1.0 3:11.635946660563139 40:1.0 
-1.1673830467240036 3:0.2667304738765721 52:1.0 
-0.529345180803955 3:1.725016317475119 96:1.0 
8.0 3:1.842235545244942 39:1.0 
8.0 3:8.724557982513875 40:1.0 
8.0 3:2.1718666417461376 16:1.0 
8.0 2:1.0 3:4.33234179602615 66:1.0 
8.0 3:1.4373342450233382 
8.0 3:0.921117772622471 39:1.0 
-8.0 3:1.725016317475119 39:1.0 
8.0 3:4.355104977107617 22:1.0 
8.0 0:1.0 3:4.928509210470662 38:1.0 
8.0 3:4.315760799542796 66:1.0 
8.0 2:1.0 3:6.464414811423966 40:1.0 
8.0 3:1.1878097228281097 29:1.0 
-8.0 1:1.0 3:17.420419908430468 16:1.0 67:1.0 
-7.943017890331775 3:3.8473740245412062 35:1.0 
-8.0 3:2.938038957320973 22:1.0 
-8.0 3:6.434546518787453 39:1.0 
0.16687036446531725 3:43.43278812057149 63:1.0 
8.0 0:1.0 3:5.399452591673453 36:1.0 
-8.0 3:1.3046478038643796 
8.0 3:1.725016317475119 27:1.0 
-8.0 3:0.37217640557855897 8:1.0 
8.0 3:6.434546518787453 22:1.0 
2.8078727907951673 3:15.635430733790148 39:1.0 
-8.0 3:0.711281263670859 52:1.0 
4.126554728305494 3:43.43278812057149 39:1.0 
8.0 3:3.9496398689994527 39:1.0 
8.0 3:6.434546518787453 16:1.0 
-4.3726959298403125 3:2.157880399771398 63:1.0 
-8.0 3:5.741399338227508 
8.0 0:1.0 3:7.392763815705994 38:1.0 
8.0 3:5.748497801135655 22:1.0 67:1.0 
8.0 3:27.087180129281414 66:1.0 
8.0 3:7.323915593095344 39:1.0 
8.0 3:9.89715690857491 42:1.0 
-8.0 3:3.359340556742456 8:1.0 
-8.0 3:1.3911214018682065 5:1.0 
-7.839532640749559 5:1.0 
8.0 3:6.001118628604614 22:1.0 
-8.0 3:3.343504065429137 39:1.0 
-8.0 3:3.393724832185132 40:1.0 
-8.0 3:4.355104977107617 16:1.0 
-8.0 3:6.134501377601958 22:1.0 67:1.0 
-4.436142537508723 3:5.335934230119343 5:1.0 
8.0 3:0.10950118374857026 8:1.0 
-2.598165439571974 3:4.237321941451234 45:1.0 
8.0 3:6.134501377601958 40:1.0 
8.0 3:5.491334129347034 16:1.0 
-1.432928856013603 3:2.5633455078795624 
-8.0 3:1.2640625237493013 40:1.0 
8.0 1:1.0 3:14.819408836757997 51:1.0 
-8.0 3:3.4388142452334622 39:1.0 
-0.3500237569128537 3:5.168797834154789 100:1.0 
8.0 3:0.6149001483471844 8:1.0 
-8.0 3:11.49699560227131 27:1.0 
-8.0 3:11.482798676455015 27:1.0 
8.0 3:0.6149001483471844 8:1.0 
-8.0 3:12.86268277567701 39:1.0 
-8.0 3:42.007830400232294 22:1.0 
-8.0 3:9.685589719094498 40:1.0 
-8.0 3:21.213081673935605 66:1.0 
-8.0 2:1.0 3:7.2205696600435845 40:1.0 
8.0 0:1.0 3:2.464254605235331 38:1.0 
-8.0 3:0.20477882418410742 8:1.0 
-8.0 1:1.0 3:35.337765103672936 22:1.0 
-8.0 3:4.036651245989082 40:1.0 
-8.0 3:4.036651245989082 40:1.0 
-8.0 3:3.067250688800979 40:1.0 
-8.0 2:1.0 3:1.2928829622847933 40:1.0 
-8.0 2:1.0 3:1.6896143904242031 63:1.0 
-8.0 3:1.6809563276810884 26:1.0 
-8.0 3:4.891124944446357 22:1.0 
-8.0 3:1.5072928336302485 39:1.0 
8.0 3:13.728335323367585 40:1.0 
8.0 3:15.336253444004894 40:1.0 
8.0 3:0.3908831505640489 5:1.0 
-0.34283478251217436 3:4.430077627222693 101:1.0 
-8.0 3:5.335934230119343 40:1.0 
-8.0 3:3.2990523028583034 24:1.0 
8.0 0:1.0 3:7.392763815705994 38:1.0 
-8.0 3:0.24573458902092893 8:1.0 
-8.0 3:8.576348310556249 22:1.0 
-8.0 3:12.622879071006732 63:1.0 
8.0 1:1.0 3:2.1170584052511425 40:1.0 
8.0 3:5.005441772126255 40:1.0 
-2.3550591962452487 3:34.82637445193325 63:1.0 
-8.0 0:1.0 3:7.392763815705994 38:1.0 
-8.0 3:1.3046478038643796 
-8.0 3:0.24573458902092893 8:1.0 
8.0 3:1.5072928336302485 27:1.0 
8.0 3:0.4045395712810424 8:1.0 
-8.0 3:11.49699560227131 27:1.0 
8.0 3:0.4045395712810424 8:1.0 
-8.0 3:6.434546518787453 39:1.0 
-8.0 3:3.4388142452334622 39:1.0 
-8.0 3:4.131961425793407 5:1.0 
-8.0 3:1.5148721261926759 8:1.0 
-8.0 3:0.5509022605910404 46:1.0 
-6.8666760157379985 3:10.982668258694067 63:1.0 
-8.0 3:12.269002755203916 40:1.0 
-8.0 3:12.864522465834373 69:1.0 
8.0 3:5.048252157667562 39:1.0 
-8.0 3:3.869473696914376 39:1.0 
8.0 3:2.745667064673517 83:1.0 
8.0 3:13.379123396378922 57:1.0 
8.0 3:18.977445945860975 66:1.0 
8.0 3:8.415252714004488 68:1.0 
3.7692542257590866 3:22.99399120454262 71:1.0 
0.0178516939965071 3:116.0879148397775 40:1.0 
8.0 0:1.0 3:12.321273026176655 63:1.0 
-8.0 3:92.8429786577489 66:1.0 
8.0 3:5.168797834154789 40:1.0 
8.0 3:4.430077627222693 86:1.0 
-8.0 3:1.4578127763668787 39:1.0 
-8.0 3:1.059268111103288 5:1.0 
-8.0 3:6.134501377601958 40:1.0 
-8.0 3:8.23700119402055 16:1.0 
0.28015514189114016 3:42.56556877458508 71:1.0 
-8.0 3:9.89715690857491 42:1.0 
-8.0 3:3.9496398689994527 39:1.0 
8.0 3:8.622746701703482 37:1.0 
-8.0 3:9.650217212706705 66:1.0 
8.0 3:0.3398132398760756 8:1.0 
-8.0 3:9.428036299526935 22:1.0 
-8.0 3:9.650217212706705 66:1.0 
-2.212785808252074 3:1.0529271612370443 39:1.0 
-8.0 3:4.237321941451234 45:1.0 
8.0 3:6.134501377601958 40:1.0 
8.0 3:5.491334129347034 16:1.0 
-8.0 3:1.2640625237493013 40:1.0 
-8.0 1:1.0 3:14.819408836757997 51:1.0 
-8.0 3:3.4388142452334622 39:1.0 
8.0 3:11.49699560227131 27:1.0 
-8.0 3:11.482798676455015 27:1.0 
-7.977207238033982 3:0.6149001483471844 8:1.0 
-8.0 3:12.86268277567701 39:1.0 
3.086357975382964 3:42.007830400232294 22:1.0 
-8.0 3:9.685589719094498 40:1.0 
-8.0 3:21.213081673935605 66:1.0 
-8.0 2:1.0 3:7.2205696600435845 40:1.0 
8.0 0:1.0 3:2.464254605235331 38:1.0 
2.5338854068807284 3:61.91355458121466 63:1.0 
8.0 3:14.255137901656717 16:1.0 
8.0 3:1.725016317475119 
8.0 3:8.073302491978165 22:1.0 
8.0 3:2.302685580098929 66:1.0 
-0.6939255377862468 3:64.58641993582532 40:1.0 
0.576991131131059 3:22.509694857434766 57:1.0 
8.0 3:18.00335588581384 63:1.0 
-0.34319050422372466 3:2.200440014190194 102:1.0 
8.0 3:0.7347207505252856 67:1.0 
-8.0 3:4.825108606353353 16:1.0 
-8.0 3:5.335934230119343 22:1.0 
-8.0 3:15.181956756688779 39:1.0 
0.42633973609987447 0:1.0 3:12.321273026176655 38:1.0 
8.0 1:1.0 3:8.46823362100457 16:1.0 
-7.00929052892287 3:4.48863636973214 
-8.0 2:1.0 3:2.5857659245695865 40:1.0 
8.0 3:0.4045395712810424 8:1.0 
8.0 3:8.071324765912081 27:1.0 
-8.0 3:3.960398445067891 42:1.0 
-8.0 3:1.5072928336302485 39:1.0 
-4.268978775776887 3:2.374103508241034 39:1.0 67:1.0 
8.0 3:6.598104605716607 63:1.0 
-4.795351942399622 3:1.4239112246911974 35:1.0 
8.0 3:0.4045395712810424 8:1.0 
-8.0 3:5.335934230119343 22:1.0 
-8.0 3:29.661253590158637 39:1.0 
8.0 0:1.0 3:9.857018420941325 38:1.0 
-8.0 3:7.071027224645201 40:1.0 
-8.0 3:1.359396922598918 77:1.0 
0.20464442066055974 3:30.00559314302307 5:1.0 
8.0 3:2.2914117923959205 16:1.0 
-8.0 2:1.0 3:4.288174155278124 39:1.0 67:1.0 
-8.0 3:4.825108606353353 39:1.0 67:1.0 
-8.0 3:7.951070654607577 66:1.0 
-8.0 3:4.0314118219817106 
8.0 3:0.6593105054179075 28:1.0 
-8.0 3:2.198080016408753 16:1.0 
8.0 3:0.3691135096694852 29:1.0 
8.0 3:0.921117772622471 39:1.0 
8.0 3:4.551326870855562 35:1.0 
8.0 3:2.912144141285529 16:1.0 
0.04501682492246786 3:103.29903564483519 40:1.0 
-8.0 3:7.088349521782577 22:1.0 
-8.0 3:6.434546518787453 39:1.0 
-8.0 3:11.848919606998358 51:1.0 
-8.0 3:6.434546518787453 66:1.0 
8.0 3:1.555033368540054 51:1.0 
8.0 3:4.036651245989082 22:1.0 
8.0 3:4.234116810502285 35:1.0 67:1.0 
-8.0 3:3.5441747608912886 72:1.0 
-0.48624657910218255 3:1.2718215042965075 17:1.0 
8.0 3:0.2061198752914264 9:1.0 
8.0 3:1.6305254740541966 45:1.0 
8.0 3:4.521878500890745 
8.0 3:0.3686018835313934 26:1.0 
8.0 3:1.679670278371228 48:1.0 
8.0 3:6.001118628604614 22:1.0 
-8.0 3:4.430077627222693 63:1.0 
8.0 3:4.039659003180469 8:1.0 
8.0 3:3.419235581080282 16:1.0 
8.0 3:0.3686018835313934 26:1.0 
8.0 3:6.001118628604614 22:1.0 
-8.0 3:6.434546518787453 39:1.0 
-8.0 2:1.0 3:5.702055160662686 69:1.0 
-8.0 2:1.0 3:2.8882278640174337 16:1.0 
-8.0 3:3.138709652783124 22:1.0 
8.0 3:2.0157059109908553 73:1.0 
8.0 3:2.3074121337423614 39:1.0 
8.0 3:13.928361148678192 39:1.0 
8.0 3:0.7534977204776085 28:1.0 
8.0 3:1.050051455998364 43:1.0 
8.0 3:0.7372037670627868 26:1.0 
7.074282303017441 3:24.004474514418455 22:1.0 
-8.0 3:11.457058961979602 16:1.0 
8.0 3:2.650356884869192 66:1.0 
-8.0 3:0.4581956094895193 8:1.0 
-7.481361358038059 3:2.3546803764925266 28:1.0 
-8.0 3:0.45051341320503635 8:1.0 
8.0 48:1.0 
0.07094326211529384 3:148.75061132856266 22:1.0 
8.0 3:0.257649844114283 10:1.0 
8.0 3:5.3832735106135 45:1.0 
8.0 48:1.0 
8.0 3:4.642787049559398 39:1.0 
-8.0 3:3.7954891891721947 51:1.0 
8.0 3:5.3832735106135 45:1.0 
0.5245975536768688 3:70.88349521782577 66:1.0 
0.07010683121538497 3:148.75061132856266 42:1.0 
8.0 48:1.0 
8.0 3:13.604872260415725 40:1.0 
8.0 1:1.0 3:10.671868460238686 40:1.0 
-3.8676246862803363 3:6.434546518787453 16:1.0 
-8.0 3:0.16382305934728594 8:1.0 
-8.0 3:6.997345278456861 22:1.0 
-8.0 3:11.482798676455015 63:1.0 
-1.2031248597174788 3:7.202666349462474 104:1.0 
1.409197101165575 3:45.45157568372748 40:1.0 
-1.7704247611213162 3:4.825108606353353 37:1.0 
-8.0 3:7.8992797379989055 63:1.0 
8.0 3:15.478388645303665 40:1.0 
8.0 3:3.6991580802337625 
-8.0 0:1.0 3:2.851027580331343 38:1.0 
-8.0 3:9.102653741711125 72:1.0 
-8.0 3:2.2914117923959205 66:1.0 
-8.0 3:6.434546518787453 40:1.0 
-8.0 3:3.9496398689994527 40:1.0 
-0.017050749013952378 3:3.114218831870402 49:1.0 
8.0 48:1.0 
-8.0 3:3.359340556742456 8:1.0 
8.0 3:2.2914117923959205 
8.0 3:0.05273050138135503 53:1.0 
8.0 3:2.0778376920978614 39:1.0 
8.0 3:2.7062843076059804 22:1.0 
8.0 48:1.0 
4.643320110819107 3:26.748032523433096 51:1.0 
8.0 3:2.938038957320973 39:1.0 
8.0 48:1.0 
-3.462416447385318 3:7.590978378344389 103:1.0 
-8.0 3:4.131961425793407 45:1.0 
-8.0 3:3.39002408106403 22:1.0 
-0.179121829865345 3:2.4943214258933963 43:1.0 
8.0 3:0.04823155280961589 48:1.0 
-8.0 3:13.06531493132285 73:1.0 
-8.0 3:2.3164233949849526 16:1.0 
-8.0 3:10.787507602016339 22:1.0 
-8.0 3:8.97727273946428 39:1.0 
8.0 48:1.0 
-8.0 3:7.920796890135782 103:1.0 
-8.0 3:4.131961425793407 74:1.0 
8.0 3:0.04823155280961589 48:1.0 
-8.0 3:19.30043442541341 77:1.0 
8.0 3:15.902141309215153 66:1.0 
8.0 3:6.687008130858274 37:1.0 
-8.0 3:23.697839213996716 22:1.0 
-8.0 3:8.263922851586814 39:1.0 
-8.0 3:61.97942138690111 22:1.0 
-8.0 3:32.49950934691579 22:1.0 
8.0 1:1.0 3:6.434546518787453 16:1.0 
-8.0 3:6.434546518787453 40:1.0 
8.0 3:4.551326870855562 66:1.0 
8.0 3:4.642787049559398 40:1.0 
-8.0 3:8.073302491978165 17:1.0 
8.0 3:2.543054806611929 28:1.0 
-6.556473658655359 3:3.892773539838003 48:1.0 
-4.271825747452211 3:61.97942138690111 57:1.0 
6.94820424443496 3:63.01174560034844 66:1.0 
0.13332099377115753 3:260.31356982498465 40:1.0 
-5.056737388784897 3:23.697839213996716 105:1.0 
-8.0 3:2.2150388136113466 26:1.0 
-7.795604873881708 3:0.33494479734856786 9:1.0 
8.0 3:1.5563190637992164 8:1.0 
-8.0 3:2.162441139834252 54:1.0 
-0.7425049776495785 3:3.7954891891721947 16:1.0 
-8.0 3:4.288174155278124 39:1.0 67:1.0 
-8.0 3:13.25178442434596 66:1.0 
8.0 3:0.8191152967364297 8:1.0 
-0.42315113894295237 3:1.7895570861343204 28:1.0 
8.0 3:11.17948895305573 26:1.0 
0.030672493539493185 3:107.43099707062859 16:1.0 
5.05528923362744 3:15.511710043061246 69:1.0 
8.0 3:5.215271369265234 38:1.0 
8.0 3:2.795187832747648 74:1.0 
8.0 3:0.2910318128062137 5:1.0 
8.0 3:0.8191152967364297 5:1.0 
-8.0 3:6.980215079242026 45:1.0 
8.0 3:9.00167794290692 22:1.0 
8.0 3:5.048252157667562 
8.0 3:6.434546518787453 66:1.0 
-8.0 3:6.434546518787453 39:1.0 
8.0 3:11.608791483977749 73:1.0 
8.0 3:13.25178442434596 16:1.0 
-8.0 3:0.24573458902092893 8:1.0 
8.0 3:3.9676761912927296 5:1.0 
8.0 48:1.0 
8.0 3:1.842235545244942 39:1.0 
8.0 3:8.553082740994029 39:1.0 
8.0 3:6.047117732972566 22:1.0 
8.0 48:1.0 
-8.0 3:42.53009713069547 77:1.0 
-8.0 3:1.050051455998364 
8.0 48:1.0 
8.0 3:74.37530566428133 16:1.0 
8.0 48:1.0 
-8.0 3:6.922236401227084 39:1.0 
-8.0 3:1.2471607129466982 43:1.0 
-8.0 3:42.53009713069547 40:1.0 
-0.6352483512792549 3:5.335934230119343 37:1.0 
3.120034214401464 1:1.0 3:22.96559735291003 16:1.0 
-8.0 3:4.782990501905806 26:1.0 
-8.0 3:0.2667304738765721 52:1.0 
-7.485454707450916 3:2.3074121337423614 73:1.0 
-8.0 0:1.0 3:4.614824267484723 38:1.0 
8.0 3:4.131961425793407 40:1.0 
-8.0 3:1.6809563276810884 
8.0 3:8.263922851586814 76:1.0 
-1.274278848238568 3:2.374103508241034 58:1.0 
-8.0 3:3.661957796547672 22:1.0 
-8.0 3:4.131961425793407 39:1.0 
8.0 2:1.0 3:3.067250688800979 40:1.0 
-8.0 2:1.0 3:12.869093037574906 71:1.0 
-8.0 3:3.601333174731237 38:1.0 
-0.2225412511903783 3:0.4531323075329727 63:1.0 
8.0 3:10.423620489193432 74:1.0 
-8.0 0:1.0 3:13.139420145085667 75:1.0 
8.0 3:16.52784570317363 39:1.0 
8.0 3:8.263922851586814 40:1.0 
8.0 3:4.131961425793407 66:1.0 
8.0 3:8.263922851586814 40:1.0 
-8.0 3:6.434546518787453 66:1.0 67:1.0 
8.0 3:16.52784570317363 39:1.0 
8.0 3:2.770984872657807 40:1.0 
-3.736974249284547 3:1.7431986365583094 5:1.0 
-8.0 3:6.434546518787453 66:1.0 67:1.0 
-8.0 3:4.131961425793407 39:1.0 
-8.0 3:4.48863636973214 
8.0 3:5.876077914641946 22:1.0 
8.0 3:10.671868460238686 65:1.0 
-8.0 3:1.3703070657583993 39:1.0 
-8.0 3:3.5441747608912886 39:1.0 
-5.382153722980351 3:74.6381913969576 17:1.0 
-7.993861709361736 3:0.5501738169422177 8:1.0 
-8.0 3:1.8394266686528633 38:1.0 
-8.0 3:2.912144141285529 22:1.0 
8.0 3:7.738947393828752 39:1.0 
-8.0 3:9.622758451159784 16:1.0 
-3.588202791553244 3:9.089232757156054 37:1.0 
8.0 3:5.005441772126255 77:1.0 
1.8826274709618922 3:20.659807128967035 69:1.0 
-8.0 2:1.0 3:8.710209954215234 40:1.0 
-8.0 3:9.622758451159784 16:1.0 
8.0 3:1.8327824379580773 8:1.0 
0.7514272999050096 2:1.0 3:80.79545465517852 40:1.0 
-8.0 3:8.957424577068892 22:1.0 
-8.0 3:74.6381913969576 16:1.0 
-2.8274199880780726 3:1.5395689425568297 29:1.0 
-8.0 3:31.136363490623527 82:1.0 
8.0 3:5.97568578689141 58:1.0 
-8.0 2:1.0 3:2.770984872657807 40:1.0 
-8.0 3:3.726496317685243 40:1.0 
-8.0 1:1.0 3:6.434546518787453 16:1.0 
3.4103067127828544 1:1.0 3:12.395884277380222 66:1.0 
8.0 3:13.728335323367585 39:1.0 
0.8775441912362155 2:1.0 3:35.90909095785712 66:1.0 
-8.0 3:3.9496398689994527 40:1.0 
-8.0 3:7.739194322651833 39:1.0 
8.0 3:14.961586618556934 63:1.0 
-8.0 3:5.6472572122864575 74:1.0 
-8.0 3:1.3407963179806908 45:1.0 
8.0 48:1.0 
-8.0 3:4.35281969123735 
-8.0 2:1.0 3:9.650217212706705 22:1.0 
-8.0 3:4.48863636973214 38:1.0 
-8.0 3:5.335934230119343 38:1.0 
8.0 48:1.0 
-8.0 3:6.434546518787453 39:1.0 
-8.0 3:3.468132305990074 40:1.0 
-8.0 3:0.07085370713142783 8:1.0 
8.0 48:1.0 
8.0 3:1.4239112246911974 45:1.0 
8.0 3:0.4581956094895193 8:1.0 
8.0 3:8.263922851586814 5:1.0 
8.0 3:0.18837443011940214 16:1.0 
8.0 3:0.5509022605910404 46:1.0 
8.0 3:3.6991580802337625 37:1.0 
-0.047554861600493256 3:3.486397273116619 48:1.0 
0.2781774939762586 3:26.748032523433096 16:1.0 
-8.0 3:4.400880028380388 35:1.0 
-8.0 3:5.335934230119343 22:1.0 
8.0 3:8.263922851586814 40:1.0 
-8.0 3:11.482798676455015 39:1.0 
8.0 3:5.937621231975453 74:1.0 
8.0 3:4.237321941451234 16:1.0 
8.0 3:6.78004816212806 
-8.0 0:1.0 3:4.237072444413152 36:1.0 
8.0 3:8.263922851586814 40:1.0 
-8.0 3:5.335934230119343 
1.00825390988768 2:1.0 3:60.97146967950664 106:1.0 
-8.0 3:1.4857866284092849 26:1.0 
-8.0 3:6.512985376879015 38:1.0 
-7.457747744821256 3:7.796745977931508 47:1.0 
-8.0 3:0.6056009011772461 22:1.0 
-8.0 3:15.798559475997811 40:1.0 
-8.0 3:18.57114819823759 26:1.0 67:1.0 
-8.0 3:10.859333208730689 43:1.0 
-8.0 3:3.9837905245942733 58:1.0 
-8.0 3:2.8236286061432287 58:1.0 
-0.22271197574269003 3:5.61059498195885 60:1.0 
-8.0 3:0.0868167950573086 60:1.0 
-8.0 3:4.237321941451234 96:1.0 
-8.0 3:2.3236726546141417 38:1.0 
-8.0 3:7.874553600531478 39:1.0 
-8.0 2:1.0 3:3.601333174731237 71:1.0 
-8.0 3:5.741399338227508 76:1.0 
8.0 3:1.725016317475119 16:1.0 
-8.0 3:9.229648534969446 
8.0 3:0.3398132398760756 8:1.0 
8.0 3:12.13339654850119 27:1.0 
-2.97918732856608 3:4.17336420560462 63:1.0 
8.0 3:1.4653866776058353 51:1.0 
8.0 3:2.374103508241034 22:1.0 
8.0 3:4.131961425793407 22:1.0 67:1.0 
-8.0 3:9.100047411375893 26:1.0 
-8.0 3:4.891124944446357 22:1.0 
-1.7357566298418374 3:3.5441747608912886 69:1.0 
-8.0 3:6.434546518787453 66:1.0 
-8.0 3:5.541969745315614 40:1.0 
-8.0 3:0.012861747415897571 48:1.0 
-8.0 3:3.661957796547672 39:1.0 
-8.0 3:13.139420145085667 63:1.0 
8.0 3:5.61059498195885 40:1.0 
-8.0 3:1.6983480703929577 39:1.0 
6.5018364152817965 3:12.395884277380222 69:1.0 
8.0 3:4.131961425793407 40:1.0 
6.237989582826797 3:6.277419305566248 107:1.0 
-8.0 3:1.635550842241764 16:1.0 
-8.0 3:0.24573458902092893 8:1.0 
-8.0 3:23.033587658384317 26:1.0 
-8.0 3:6.431341387838505 58:1.0 
-8.0 3:13.842364648349864 16:1.0 
8.0 3:0.12945266280993356 8:1.0 
-8.0 3:3.000559314302307 40:1.0 
-8.0 3:6.434546518787453 40:1.0 
-8.0 3:5.741399338227508 22:1.0 67:1.0 
8.0 3:4.131961425793407 40:1.0 
8.0 3:4.131961425793407 57:1.0 
-8.0 3:0.05797121492571367 9:1.0 
-8.0 3:4.701036204995612 77:1.0 
-8.0 3:1.9245516902319568 16:1.0 
8.0 3:7.336687416669536 
-8.0 1:1.0 3:8.46823362100457 40:1.0 
-8.0 3:20.02176708850502 83:1.0 
0.06423072995714207 2:1.0 3:71.19050570234464 40:1.0 
-5.412376637050282 2:1.0 3:55.89744476527864 51:1.0 
-8.0 3:22.079936370263813 42:1.0 
8.0 3:0.8576238911158098 8:1.0 
8.0 3:0.8576238911158098 8:1.0 
-8.0 3:7.119556123455987 27:1.0 
-0.28461532210170826 2:1.0 3:48.44445212990816 16:1.0 
-8.0 3:10.80399952419371 27:1.0 
8.0 3:0.8576238911158098 8:1.0 
0.007228737888059555 1:1.0 3:106.99213009373238 40:1.0 
-8.0 3:10.72043538819531 39:1.0 
-8.0 3:10.01088354425251 5:1.0 
-8.0 2:1.0 3:2.4455624722231786 63:1.0 
-8.0 2:1.0 3:2.720974452083145 40:1.0 
3.272094107061998 3:0.8576238911158098 70:1.0 
-8.0 3:22.079936370263813 24:1.0 
-7.992360642435468 1:1.0 3:32.95762016892905 40:1.0 67:1.0 
-8.0 3:5.77365507069587 40:1.0 
-5.582732522263229 3:1.635550842241764 16:1.0 
-8.0 3:0.16747239867428393 8:1.0 
8.0 3:3.960398445067891 26:1.0 
8.0 3:1.2230012466088687 38:1.0 
8.0 3:4.036651245989082 22:1.0 
8.0 3:1.638755973190712 66:1.0 
8.0 3:2.8236286061432287 58:1.0 
8.0 3:1.258396786213624 58:1.0 
8.0 3:4.489783553522055 77:1.0 
-8.0 3:4.614824267484723 74:1.0 
-8.0 3:1.397593916373824 48:1.0 
8.0 3:9.734172980490214 43:1.0 
-8.0 1:1.0 3:12.869093037574906 42:1.0 
-8.0 3:3.8038940512683945 39:1.0 
-8.0 3:3.661957796547672 76:1.0 
8.0 3:8.263922851586814 39:1.0 
8.0 3:5.428721116509546 16:1.0 
8.0 3:7.323915593095344 26:1.0 
8.0 3:4.355104977107617 22:1.0 
-8.0 2:1.0 3:6.434546518787453 108:1.0 
-7.040830090002773 3:5.313322274026158 98:1.0 
-8.0 3:2.6733464030938907 22:1.0 
8.0 3:7.753196751232184 39:1.0 
8.0 3:7.336687416669536 66:1.0 
8.0 3:12.997025388078452 40:1.0 
-8.0 3:7.323915593095344 68:1.0 
8.0 3:3.359340556742456 48:1.0 
-8.0 3:1.3286010448868726 39:1.0 
-8.0 3:4.0556545430464 66:1.0 
8.0 3:6.598104605716607 16:1.0 
-8.0 1:1.0 3:9.285574099118795 40:1.0 
0.7414143249627002 3:20.02176708850502 73:1.0 
-0.005336836371417252 3:1.454872508077155 45:1.0 
8.0 3:5.44194890416629 39:1.0 
8.0 3:7.088349521782577 39:1.0 
-8.0 3:7.188627335745023 16:1.0 
8.0 3:2.6968769005040847 
8.0 3:0.2589053256198671 8:1.0 
6.586201880066939 3:12.869093037574906 27:1.0 
8.0 3:2.5306786148297893 29:1.0 
-8.0 3:3.9496398689994527 39:1.0 
-8.0 1:1.0 3:3.490107539621013 17:1.0 
3.477075850260836 1:1.0 3:30.091536588862233 40:1.0 
8.0 3:2.3074121337423614 35:1.0 
8.0 3:0.14814866036571273 9:1.0 
-8.0 2:1.0 3:4.234116810502285 51:1.0 
8.0 3:2.2914117923959205 67:1.0 
-8.0 3:3.661957796547672 40:1.0 
-8.0 3:3.726496317685243 22:1.0 
-8.0 3:2.0278272715232 38:1.0 
8.0 3:7.8992797379989055 76:1.0 
8.0 3:7.590978378344389 74:1.0 
8.0 3:2.851027580331343 40:1.0 
8.0 2:1.0 3:8.97727273946428 63:1.0 
-8.0 3:5.2572458749897 66:1.0 
8.0 3:0.16181582851241694 8:1.0 
8.0 2:1.0 3:2.8882278640174337 40:1.0 
8.0 2:1.0 3:3.343504065429137 63:1.0 
8.0 2:1.0 3:3.343504065429137 63:1.0 67:1.0 
8.0 3:1.9459101490553132 26:1.0 
-8.0 3:0.20477882418410742 8:1.0 
8.0 3:1.7901556196460804 45:1.0 
8.0 1:1.0 3:33.43504065429137 40:1.0 
-8.0 3:10.139136357616001 66:1.0 
-8.0 3:4.237321941451234 42:1.0 
-5.4960968583886585 3:1.638755973190712 67:1.0 
-8.0 3:0.019292621123846356 48:1.0 
8.0 3:2.938038957320973 77:1.0 
-8.0 3:6.434546518787453 27:1.0 67:1.0 
-8.0 3:4.825108606353353 26:1.0 
-8.0 3:3.869473696914376 39:1.0 
-8.0 3:3.067250688800979 40:1.0 
8.0 3:10.337595668309579 16:1.0 
-8.0 3:3.8038940512683945 
8.0 3:0.14563424566117525 8:1.0 
8.0 3:6.204684017224499 27:1.0 
8.0 3:3.7954891891721947 22:1.0 
8.0 3:18.721615652522818 83:1.0 
8.0 3:2.886827535347935 38:1.0 
-8.0 3:3.504830583326467 77:1.0 
8.0 3:5.005441772126255 86:1.0 
8.0 2:1.0 3:4.33234179602615 40:1.0 
-8.0 3:2.4460024932177373 38:1.0 
8.0 3:9.647012081757758 66:1.0 
8.0 2:1.0 3:2.4455624722231786 63:1.0 
8.0 3:6.204684017224499 40:1.0 
8.0 3:9.933211200824102 16:1.0 
-8.0 3:0.1030599376457132 10:1.0 
-8.0 3:10.585034296275763 16:1.0 
-8.0 3:3.4388142452334622 
-8.0 3:8.362964387735078 66:1.0 
-8.0 3:0.3285035512457108 9:1.0 
-3.196349502036741 3:2.7062843076059804 63:1.0 
-8.0 3:3.8918202981106265 74:1.0 
-8.0 2:1.0 3:18.30978898273836 40:1.0 
-8.0 2:1.0 3:21.343736920477372 65:1.0 
-8.0 3:0.3285035512457108 9:1.0 
-8.0 3:17.22419801468252 40:1.0 
-8.0 3:34.37117688593881 22:1.0 
-8.0 3:4.020803559332049 39:1.0 
-8.0 3:1.7998175305578175 43:1.0 
8.0 3:7.753196751232184 66:1.0 
-8.0 3:8.312954617973421 16:1.0 
8.0 3:4.966269077027771 8:1.0 
8.0 3:3.3792287808484063 26:1.0 
8.0 3:1.7160476474923585 27:1.0 
8.0 1:1.0 3:26.748032523433096 40:1.0 
8.0 3:2.200440014190194 65:1.0 
8.0 3:0.032154368539743926 48:1.0 
-8.0 3:3.000559314302307 40:1.0 
8.0 0:1.0 3:4.582823584791841 38:1.0 
8.0 3:6.0834818145696 77:1.0 
-8.0 3:2.5843989170773947 38:1.0 
-8.0 3:6.434546518787453 22:1.0 
-8.0 3:6.432261232917186 39:1.0 
8.0 2:1.0 3:16.95012040532015 40:1.0 
-8.0 3:1.3105825393841943 39:1.0 
8.0 3:0.032154368539743926 48:1.0 
-8.0 3:4.459707798792974 16:1.0 
-8.0 3:6.434546518787453 39:1.0 
8.0 3:4.564966776251842 
-8.0 3:8.014918879776559 63:1.0 
0.174530013543836 3:10.01088354425251 82:1.0 
8.0 3:3.0575031165221715 38:1.0 
8.0 2:1.0 3:5.776455728034867 40:1.0 
8.0 3:19.294024163515516 66:1.0 
8.0 2:1.0 3:4.891124944446357 63:1.0 
8.0 3:15.69354826391562 16:1.0 
-1.0489008122915 0:1.0 3:10.301913219692821 36:1.0 
8.0 3:3.0575031165221715 38:1.0 
-8.0 3:0.14814866036571273 9:1.0 
-8.0 3:0.6143364725523223 8:1.0 
8.0 3:3.83233186742377 26:1.0 
-8.0 3:11.444801702735953 45:1.0 
-8.0 3:4.459707798792974 16:1.0 
8.0 3:5.706208470314803 
8.0 3:5.77365507069587 38:1.0 
8.0 3:4.400880028380388 39:1.0 
8.0 3:3.271101684483528 17:1.0 
-8.0 3:0.2866903538577504 8:1.0 
8.0 3:1.4239112246911974 26:1.0 
8.0 3:3.1023420086122493 26:1.0 67:1.0 
8.0 3:2.9715732568185698 63:1.0 
8.0 3:13.755256980933849 16:1.0 
8.0 3:0.48981383368352377 81:1.0 
-8.0 3:1.9459101490553132 26:1.0 
8.0 3:5.706208470314803 16:1.0 
8.0 3:0.17799741136365865 8:1.0 
8.0 3:1.5072928336302485 39:1.0 
8.0 3:5.048252157667562 27:1.0 
-8.0 3:1.316552706370698 83:1.0 
-8.0 2:1.0 3:18.632481588426216 51:1.0 
6.923490169350912 1:1.0 3:29.661253590158637 42:1.0 
-8.0 3:3.9496398689994527 40:1.0 
8.0 2:1.0 3:12.395884277380222 39:1.0 
-7.99175210280695 1:1.0 3:4.237321941451234 40:1.0 
8.0 3:4.489783553522055 22:1.0 
8.0 2:1.0 3:8.263922851586814 40:1.0 
8.0 3:2.5027208860631274 63:1.0 
-5.122129963964902 3:0.13526616815999856 10:1.0 
-7.4937754246249 3:3.8695971613259164 37:1.0 
-8.0 3:0.24272374276862543 8:1.0 
-8.0 3:2.8478224493823947 27:1.0 
-2.891554993127932 3:0.13526616815999856 9:1.0 
8.0 2:1.0 3:10.17007224319209 63:1.0 
-7.864251342794777 3:1.7998175305578175 67:1.0 
8.0 3:6.601320042570581 16:1.0 
8.0 3:2.2150388136113466 39:1.0 
8.0 2:1.0 3:7.2205696600435845 73:1.0 
8.0 3:4.642787049559398 40:1.0 
8.0 1:1.0 3:5.048252157667562 40:1.0 
-7.947452311785208 3:0.13526616815999856 8:1.0 
8.0 3:3.3792287808484063 26:1.0 
8.0 3:3.1023420086122493 22:1.0 
8.0 3:4.080194728230029 37:1.0 
8.0 3:0.3236316570248339 8:1.0 
8.0 3:4.0314118219817106 22:1.0 
8.0 3:16.52784570317363 39:1.0 
-8.0 3:4.271733674073592 44:1.0 
-8.0 3:13.469350660566164 22:1.0 
8.0 2:1.0 3:8.263922851586814 40:1.0 
-3.27756133549523 3:1.7384237897550778 38:1.0 
-8.0 3:2.2448917767610275 16:1.0 
8.0 3:8.390881077183202 40:1.0 
8.0 3:10.632524282673867 66:1.0 
8.0 3:2.8236286061432287 43:1.0 
-0.9132877336426256 0:1.0 3:2.8236286061432287 87:1.0 
-0.34441801730024174 3:4.131961425793407 109:1.0 
8.0 3:4.355104977107617 44:1.0 
8.0 3:0.3236316570248339 8:1.0 
8.0 3:4.489783553522055 22:1.0 
8.0 3:2.5027208860631274 63:1.0 
-8.0 0:1.0 3:3.2156706939192525 38:1.0 
8.0 3:0.23832610580571176 5:1.0 
8.0 3:4.48863636973214 66:1.0 
8.0 3:0.23832610580571176 
-8.0 3:3.5888490070756665 22:1.0 
8.0 3:0.3236316570248339 8:1.0 
-8.0 3:5.048252157667562 27:1.0 
-8.0 3:4.131961425793407 66:1.0 
-0.15849072005636333 3:5.741399338227508 111:1.0 
8.0 3:0.3091798129371396 
-8.0 3:7.088349521782577 16:1.0 
-8.0 2:1.0 3:37.187652832140664 39:1.0 
-8.0 3:9.215868944594886 16:1.0 
-8.0 3:3.9496398689994527 40:1.0 
2.701145433679763 1:1.0 3:55.08518523886604 42:1.0 
-8.0 1:1.0 3:4.237321941451234 40:1.0 
-8.0 3:2.7406141315167987 72:1.0 
8.0 3:0.3091798129371396 10:1.0 
-0.8551245604740464 3:6.780477746675448 110:1.0 
-0.3063766936509576 3:3.6733013873283418 16:1.0 
8.0 3:5.033587144854496 22:1.0 
-8.0 3:4.825108606353353 74:1.0 
8.0 3:0.6958080626033929 8:1.0 
-8.0 3:6.115006233044343 38:1.0 
-5.116768852848273 3:9.786048521546233 44:1.0 
8.0 3:12.513604430315636 63:1.0 
8.0 3:8.349596526094675 26:1.0 
-8.0 3:8.744205106952377 66:1.0 
8.0 3:0.3091798129371396 5:1.0 
-8.0 3:6.434546518787453 40:1.0 
-8.0 3:3.601333174731237 39:1.0 
8.0 3:5.335934230119343 38:1.0 
8.0 2:1.0 3:8.263922851586814 66:1.0 
-8.0 3:9.650217212706705 39:1.0 
8.0 3:0.3091798129371396 9:1.0 
8.0 3:9.307026025836748 39:1.0 
8.0 3:0.8815869338658356 16:1.0 
8.0 3:0.048544748553725085 8:1.0 
8.0 3:6.78004816212806 27:1.0 
8.0 3:5.593920718122135 40:1.0 
8.0 3:2.186051276738094 40:1.0 
8.0 3:2.5427262206768266 22:1.0 
-2.125946515307108 3:0.09418721505970107 17:1.0 
-7.9988028741318 3:0.01288249220571415 9:1.0 
8.0 3:0.048544748553725085 8:1.0 
-0.9781049516238098 3:1.9572097043092467 74:1.0 
-8.0 3:0.05273050138135503 25:1.0 
8.0 3:0.6115006233044343 38:1.0 
-0.2832122074287772 3:1.1927995037278107 
8.0 3:2.2448917767610275 16:1.0 
-8.0 3:0.006430873707948786 48:1.0 
-8.0 0:1.0 3:3.2156706939192525 38:1.0 
8.0 2:1.0 3:4.131961425793407 40:1.0 
-8.0 3:4.355104977107617 66:1.0 
-2.454463964025704 2:1.0 3:3.9496398689994527 71:1.0 
8.0 3:4.642787049559398 40:1.0 
8.0 1:1.0 3:5.048252157667562 40:1.0 
8.0 1:1.0 3:20.19300863067025 16:1.0 
8.0 3:1.3656423165672216 8:1.0 
8.0 3:2.5027208860631274 26:1.0 
8.0 3:5.399452591673453 63:1.0 
8.0 3:4.080194728230029 78:1.0 
8.0 3:4.0314118219817106 22:1.0 
-8.0 3:4.271733674073592 44:1.0 
8.0 3:0.27508690847110884 8:1.0 
-8.0 3:12.395884277380222 39:1.0 
-8.0 3:2.4460024932177373 38:1.0 
-8.0 3:13.469350660566164 22:1.0 
8.0 2:1.0 3:8.263922851586814 40:1.0 
8.0 3:9.307026025836748 39:1.0 
8.0 3:0.8815869338658356 16:1.0 
8.0 3:0.048544748553725085 8:1.0 
8.0 3:6.78004816212806 27:1.0 
8.0 3:5.593920718122135 40:1.0 
8.0 3:2.186051276738094 40:1.0 
8.0 3:2.5427262206768266 22:1.0 
-0.018247130797312675 3:0.46328467899699055 17:1.0 
-2.566625204500305 3:0.01288249220571415 9:1.0 
8.0 3:2.8236286061432287 37:1.0 
8.0 3:0.048544748553725085 8:1.0 
-3.8975242045927927 3:1.9572097043092467 74:1.0 
-8.0 3:0.05273050138135503 25:1.0 
8.0 3:2.2448917767610275 16:1.0 
-8.0 3:0.006430873707948786 48:1.0 
-8.0 0:1.0 3:3.2156706939192525 38:1.0 
-8.0 3:2.5027208860631274 63:1.0 
8.0 2:1.0 3:4.131961425793407 40:1.0 
-8.0 3:4.355104977107617 66:1.0 
8.0 1:1.0 3:3.7954891891721947 40:1.0 
8.0 3:3.9496581191120943 42:1.0 
8.0 3:2.8882278640174337 40:1.0 
8.0 3:3.138709652783124 39:1.0 
-8.0 3:2.3962091119150077 66:1.0 
8.0 3:1.9459101490553132 26:1.0 
8.0 2:1.0 3:12.395884277380222 39:1.0 
8.0 3:3.9496581191120943 40:1.0 
4.739492280890993 1:1.0 3:29.661253590158637 73:1.0 
8.0 1:1.0 3:4.237321941451234 40:1.0 
8.0 3:2.153029316448265 22:1.0 
-8.0 3:4.036651245989082 65:1.0 
8.0 3:2.153029316448265 51:1.0 
-8.0 3:12.869093037574906 40:1.0 
-8.0 3:8.263922851586814 39:1.0 
8.0 3:12.395884277380222 39:1.0 
-8.0 3:0.20477882418410742 8:1.0 
8.0 3:2.357009074881734 
-8.0 2:1.0 3:5.776455728034867 40:1.0 
-1.928194562577618 3:0.7838273702101435 40:1.0 
-8.0 3:8.073302491978165 40:1.0 
-8.0 3:2.720974452083145 22:1.0 
-8.0 3:0.0515299688228566 8:1.0 
8.0 3:5.393753801008169 26:1.0 
8.0 48:1.0 
8.0 3:1.834501869913303 38:1.0 
8.0 3:2.3855990074556215 26:1.0 
8.0 3:1.7524152916632334 66:1.0 
8.0 77:1.0 
-8.0 3:4.355104977107617 66:1.0 
8.0 2:1.0 3:4.131961425793407 40:1.0 
8.0 3:7.238294822012728 16:1.0 
8.0 3:2.9688106159877266 38:1.0 
8.0 3:3.5263477354633426 69:1.0 
8.0 3:7.2777040077847746 39:1.0 
-0.6366458613759733 3:3.8255158834768257 63:1.0 
8.0 3:0.24272374276862543 8:1.0 
8.0 3:3.5441747608912886 39:1.0 
8.0 3:2.374103508241034 44:1.0 
8.0 3:2.1304814255832834 22:1.0 
-6.500716950335402 3:4.237321941451234 68:1.0 
8.0 3:25.24126078833781 63:1.0 
8.0 3:9.285574099118795 63:1.0 67:1.0 
8.0 3:8.263922851586814 63:1.0 67:1.0 
8.0 3:3.1023420086122493 66:1.0 
8.0 3:16.52784570317363 16:1.0 
8.0 3:2.522523513359307 
-8.0 3:0.019292621123846356 48:1.0 
8.0 2:1.0 3:6.598104605716607 39:1.0 
8.0 3:7.753196751232184 22:1.0 
-5.499271527221449 3:2.100102911996728 37:1.0 
-8.0 3:3.619147411006364 40:1.0 
8.0 3:0.09708949710745017 8:1.0 
8.0 3:4.489783553522055 27:1.0 
8.0 3:4.489783553522055 22:1.0 
-8.0 3:3.9144194086184934 66:1.0 
8.0 3:5.458278005838581 39:1.0 
8.0 2:1.0 3:5.776455728034867 40:1.0 
8.0 3:2.8791984572980396 40:1.0 67:1.0 
8.0 3:4.407934669329178 17:1.0 
-8.0 3:0.016077184269871963 48:1.0 
-8.0 3:7.2777040077847746 39:1.0 
-8.0 3:2.0016490304664267 29:1.0 
8.0 2:1.0 3:19.30363955636236 63:1.0 
-8.0 3:4.355104977107617 66:1.0 
-8.0 3:15.336253444004894 66:1.0 
8.0 3:1.9019470256341973 8:1.0 
-8.0 3:0.012861747415897571 48:1.0 
8.0 3:3.9169016137190065 39:1.0 
8.0 3:15.69354826391562 22:1.0 
-8.0 3:8.263922851586814 112:1.0 
8.0 3:8.263922851586814 39:1.0 
8.0 3:6.558153830214282 40:1.0 
8.0 3:4.237321941451234 22:1.0 
-0.6452033638906608 3:1.687119076553193 29:1.0 
-4.5484098758121165 3:1.4929040961781488 10:1.0 
8.0 3:0.12945266280993356 8:1.0 
-8.0 3:5.048252157667562 27:1.0 
8.0 3:1.4787194611861925 16:1.0 
-7.9885952231621165 3:0.019323738308571224 10:1.0 
8.0 3:3.2156706939192525 26:1.0 
8.0 3:0.08090791425620847 8:1.0 
8.0 3:3.726496317685243 27:1.0 
-0.9836224751408045 3:3.5263477354633426 73:1.0 
-8.0 3:9.097130009730968 39:1.0 
6.8300307204718145 3:1.9572097043092467 113:1.0 
8.0 3:9.285574099118795 39:1.0 
0.5956507727724987 3:19.674461490642848 68:1.0 
-8.0 3:4.036651245989082 40:1.0 
-8.0 3:1.9572097043092467 16:1.0 
-8.0 1:1.0 3:32.17273259393727 40:1.0 
-0.7292019569953071 1:1.0 3:6.434546518787453 66:1.0 
8.0 3:1.8806696271869123 16:1.0 
-8.0 3:2.650356884869192 
8.0 3:3.000559314302307 22:1.0 
8.0 3:4.825108606353353 63:1.0 
-7.296920241217867 3:1.1513427900494646 5:1.0 
-8.0 3:6.980215079242026 39:1.0 
-8.0 3:3.7954891891721947 62:1.0 
8.0 3:5.541969745315614 22:1.0 
-8.0 3:22.96559735291003 39:1.0 
1.1578735177503199 3:9.04786852751591 64:1.0 
0.8478066340294745 2:1.0 3:51.58221367850194 39:1.0 67:1.0 
-8.0 3:3.937276800265739 35:1.0 
-3.341031276516086 3:1.7817145842421644 29:1.0 
8.0 2:1.0 3:12.227812361115893 74:1.0 
8.0 3:1.9019470256341973 8:1.0 
8.0 3:11.482798676455015 26:1.0 
8.0 3:0.12945266280993356 8:1.0 
-8.0 3:4.131961425793407 45:1.0 
8.0 3:1.9572097043092467 27:1.0 
8.0 3:8.263922851586814 39:1.0 
8.0 3:6.558153830214282 40:1.0 
-8.0 3:7.238294822012728 40:1.0 
-8.0 3:2.3402019565653522 38:1.0 
8.0 3:3.4388142452334622 40:1.0 
8.0 3:2.8791984572980396 40:1.0 
8.0 3:3.450032634950238 16:1.0 
-8.0 3:2.3074121337423614 38:1.0 
8.0 3:2.7969603590610674 16:1.0 67:1.0 
8.0 3:3.4388142452334622 
8.0 3:0.11327107995869187 8:1.0 
8.0 3:2.464254605235331 27:1.0 
8.0 3:0.11327107995869187 8:1.0 
8.0 3:3.9144194086184934 27:1.0 
8.0 3:2.8791984572980396 39:1.0 
8.0 3:4.372102553476188 68:1.0 
0.4141863489208783 3:28.70699669113754 67:1.0 68:1.0 
-8.0 3:9.285574099118795 39:1.0 
2.5146491626246132 3:12.869093037574906 67:1.0 68:1.0 
-8.0 3:12.269002755203916 39:1.0 
-8.0 3:3.619147411006364 16:1.0 
-7.5865471312295725 3:3.3108460513518474 
8.0 3:0.14563424566117525 8:1.0 
-8.0 3:6.980215079242026 27:1.0 
8.0 3:5.541969745315614 22:1.0 
-7.977163269841032 3:3.138709652783124 73:1.0 
-8.0 3:1.0529271612370443 39:1.0 
8.0 3:0.14563424566117525 8:1.0 
8.0 3:5.458278005838581 39:1.0 
8.0 3:4.372102553476188 68:1.0 
7.877794087029596 3:21.470754821606853 40:1.0 
-8.0 2:1.0 3:12.869093037574906 5:1.0 
-8.0 2:1.0 3:7.8992797379989055 40:1.0 
-8.0 2:1.0 3:3.1023420086122493 5:1.0 
8.0 3:3.9496398689994527 39:1.0 
8.0 3:3.490107539621013 16:1.0 
-8.0 3:0.16747239867428393 8:1.0 
8.0 3:3.454028370148394 37:1.0 
-8.0 3:7.2777040077847746 39:1.0 
-8.0 3:7.238294822012728 40:1.0 
8.0 3:0.48544748553725087 8:1.0 
8.0 3:7.828838817236987 27:1.0 
8.0 3:5.876077914641946 22:1.0 
-8.0 3:10.470322618863038 39:1.0 
-8.0 3:6.588219104021628 76:1.0 
-8.0 3:6.980215079242026 40:1.0 
-8.0 3:23.623660801594433 22:1.0 
8.0 3:0.48544748553725087 8:1.0 
8.0 3:1.3593727035536263 27:1.0 
8.0 3:6.434546518787453 40:1.0 
-8.0 3:10.139136357616001 69:1.0 
-8.0 3:15.25635732406096 16:1.0 
-0.27602571321961467 0:1.0 3:1.059268111103288 36:1.0 
8.0 3:7.452992635370486 66:1.0 
8.0 3:8.263922851586814 38:1.0 
-3.496756751057028 3:3.2990523028583034 114:1.0 
-8.0 2:1.0 3:4.48863636973214 66:1.0 
8.0 3:6.612793652154549 26:1.0 
8.0 3:15.478388645303665 40:1.0 
8.0 3:7.5081626581893826 22:1.0 
8.0 3:3.8695971613259164 63:1.0 
-8.0 3:18.090792419541764 51:1.0 
8.0 3:6.434546518787453 39:1.0 
8.0 3:4.825108606353353 44:1.0 
-8.0 3:17.81286369592636 22:1.0 
-8.0 3:0.16181582851241694 8:1.0 
7.363675024192658 3:24.705821640081105 22:1.0 
-8.0 3:6.8776284904669245 66:1.0 
-0.7453204261967485 3:0.6734940213148451 
-1.464698522343634 3:2.144087077639062 66:1.0 
8.0 3:4.131961425793407 40:1.0 
8.0 3:3.726496317685243 66:1.0 
8.0 3:4.131961425793407 38:1.0 
-8.0 3:2.605905122298358 38:1.0 
8.0 3:2.5857659245695865 22:1.0 
8.0 3:10.337595668309579 66:1.0 
-2.9486989027931685 3:4.407310902088336 45:1.0 
-8.0 3:0.3686018835313934 8:1.0 
-8.0 3:15.144756473002687 26:1.0 
-8.0 3:0.09661869154285613 9:1.0 
8.0 3:6.980215079242026 69:1.0 
8.0 3:9.285574099118795 40:1.0 
-8.0 3:4.036651245989082 16:1.0 
3.9310892359093335 3:12.86268277567701 77:1.0 
-8.0 3:5.971616384712595 26:1.0 81:1.0 
-8.0 3:15.25635732406096 16:1.0 
8.0 3:7.202666349462474 16:1.0 
-8.0 3:2.275663435427781 26:1.0 
8.0 3:3.176449980765971 38:1.0 
8.0 3:6.598104605716607 74:1.0 
8.0 3:6.434546518787453 38:1.0 
8.0 3:6.598104605716607 5:1.0 
8.0 3:4.237321941451234 5:1.0 
-0.1636463091102286 3:1.4509398970791167 93:1.0 
-8.0 3:3.726496317685243 22:1.0 
-8.0 3:4.551326870855562 66:1.0 
8.0 3:2.7062843076059804 63:1.0 
8.0 3:12.395884277380222 40:1.0 
8.0 3:4.131961425793407 38:1.0 
8.0 3:3.726496317685243 66:1.0 
8.0 3:2.282483388125921 29:1.0 
8.0 3:9.647012081757758 35:1.0 
-8.0 3:6.434546518787453 39:1.0 
-8.0 3:10.096504315335125 16:1.0 
-8.0 3:8.90643184796318 66:1.0 
8.0 3:1.0099147507951172 43:1.0 
-8.0 3:5.393753801008169 22:1.0 
8.0 3:13.465909109196419 45:1.0 
8.0 3:2.938038957320973 113:1.0 
8.0 3:4.237321941451234 40:1.0 
8.0 3:4.941164328016221 22:1.0 
-8.0 3:4.131961425793407 38:1.0 
8.0 3:7.452992635370486 66:1.0 
8.0 3:0.12245345842088094 
3.6846685772846346 3:16.52784570317363 40:1.0 
-3.9523009506243953 3:2.3402019565653522 16:1.0 
-8.0 3:0.05797121492571367 8:1.0 
-8.0 3:1.809573705503182 26:1.0 
-8.0 3:3.2990523028583034 72:1.0 
8.0 3:12.705799923063884 22:1.0 
-6.92137433128201 3:11.516793829192158 74:1.0 
8.0 3:5.579506620852211 74:1.0 
-8.0 3:4.457359885227855 43:1.0 
-0.15772922238771903 0:1.0 3:1.059268111103288 36:1.0 
8.0 3:12.86268277567701 63:1.0 
8.0 3:0.2667304738765721 52:1.0 
8.0 2:1.0 3:4.48863636973214 40:1.0 
8.0 2:1.0 3:4.48863636973214 114:1.0 
-8.0 3:0.019292621123846356 48:1.0 
-8.0 3:1.3719514857604864 39:1.0 
8.0 3:18.632481588426216 16:1.0 
-8.0 3:1.5148721261926759 8:1.0 
-0.5709488905266622 3:1.377255651477601 46:1.0 
8.0 3:3.3792287808484063 
-3.5561995493606204 3:0.0772949532342849 9:1.0 
-8.0 3:4.459707798792974 43:1.0 
8.0 3:4.131961425793407 61:1.0 
8.0 3:3.726496317685243 76:1.0 
-8.0 3:0.29316236292303666 45:1.0 
-8.0 3:3.726496317685243 40:1.0 
-0.8247541299970378 3:2.0016490304664267 29:1.0 
0.8596295133478705 3:20.183256229945414 16:1.0 
8.0 3:0.008032130241368974 29:1.0 
-8.0 3:7.753196751232184 17:1.0 
-8.0 3:0.12286729451046446 8:1.0 
-8.0 3:2.144087077639062 66:1.0 
8.0 3:4.131961425793407 40:1.0 
8.0 3:3.726496317685243 66:1.0 
8.0 3:4.131961425793407 38:1.0 
-6.691472975121516 3:2.391495250952903 43:1.0 
-8.0 3:2.605905122298358 38:1.0 
-8.0 3:2.5857659245695865 22:1.0 
8.0 48:1.0 
-8.0 3:10.337595668309579 66:1.0 
-8.0 3:0.3686018835313934 8:1.0 
-8.0 3:15.144756473002687 26:1.0 
8.0 3:0.09661869154285613 9:1.0 
8.0 48:1.0 
-8.0 3:6.980215079242026 69:1.0 
-8.0 3:9.285574099118795 40:1.0 
-8.0 3:4.036651245989082 16:1.0 
8.0 48:1.0 
7.998211471321441 3:12.86268277567701 77:1.0 
8.0 3:5.971616384712595 26:1.0 81:1.0 
-8.0 3:15.25635732406096 16:1.0 
8.0 3:1.0099147507951172 43:1.0 
-8.0 3:5.393753801008169 22:1.0 
8.0 3:13.465909109196419 45:1.0 
8.0 3:2.938038957320973 113:1.0 
8.0 3:4.237321941451234 40:1.0 
8.0 3:4.941164328016221 22:1.0 
8.0 3:9.647012081757758 66:1.0 
8.0 3:4.131961425793407 38:1.0 
8.0 3:7.452992635370486 66:1.0 
-8.0 3:2.200440014190194 16:1.0 
8.0 3:0.12245345842088094 
2.9375319608315102 3:24.791768554760445 51:1.0 
-8.0 3:3.960398445067891 94:1.0 
-8.0 3:11.752155829283891 66:1.0 
8.0 3:8.724557982513875 40:1.0 
-8.0 3:8.020039209281672 16:1.0 
8.0 3:5.905915200398608 66:1.0 
-8.0 3:1.8912517365174493 26:1.0 
-8.0 3:11.752155829283891 22:1.0 
-8.0 1:1.0 3:17.22419801468252 16:1.0 
-8.0 3:4.036651245989082 42:1.0 
8.0 3:15.144756473002687 66:1.0 
-8.0 3:1.040854396577488 
-8.0 3:9.900996112669727 16:1.0 
-8.0 3:4.825108606353353 26:1.0 
8.0 3:4.315760799542796 22:1.0 
-8.0 3:4.941164328016221 66:1.0 
8.0 3:0.2912684913223505 8:1.0 
-8.0 3:2.7062843076059804 63:1.0 
-8.0 3:4.520318497783632 44:1.0 
8.0 3:10.459191819349856 28:1.0 
-8.0 3:0.2061198752914264 10:1.0 
-8.0 3:5.335934230119343 26:1.0 
0.008190680662288497 3:24.93886385392026 40:1.0 
8.0 3:8.97727273946428 16:1.0 
8.0 3:5.048252157667562 42:1.0 
-2.7213404706840807 3:2.200440014190194 26:1.0 
-8.0 2:1.0 3:4.825108606353353 22:1.0 
-8.0 2:1.0 3:17.11893730556225 5:1.0 
-8.0 3:0.05797121492571367 8:1.0 
-0.13860834257130752 3:2.275663435427781 26:1.0 67:1.0 
-0.13861825356216428 2:1.0 3:5.048252157667562 63:1.0 
-8.0 2:1.0 3:17.11893730556225 51:1.0 
-6.8068655884842535 3:1.6809563276810884 65:1.0 
-8.0 3:1.1312416107283774 40:1.0 
-8.0 3:0.12286729451046446 8:1.0 
-8.0 3:5.048252157667562 
-8.0 2:1.0 3:8.162923356249436 40:1.0 
-8.0 3:17.95454547892856 63:1.0 
8.0 3:5.593920718122135 35:1.0 
-0.4205946094660083 3:4.430077627222693 16:1.0 67:1.0 
-8.0 3:3.7954891891721947 26:1.0 
8.0 3:2.2656615376648634 36:1.0 
8.0 3:2.0198295015902343 48:1.0 
8.0 3:0.048544748553725085 70:1.0 
-2.507681562237524 3:1.7524152916632334 39:1.0 
-8.0 3:0.006430873707948786 48:1.0 
-8.0 3:1.8293763327993617 65:1.0 
8.0 3:0.18679613698285516 8:1.0 
8.0 3:4.48863636973214 
8.0 3:6.661609912949707 22:1.0 
-8.0 3:2.4272133335549824 69:1.0 
8.0 3:4.130197332640863 45:1.0 
-6.811897082904446 5:1.0 
-0.2462015386493434 3:4.642787049559398 43:1.0 
-8.0 2:1.0 3:8.162923356249436 22:1.0 
8.0 3:10.631080474571466 16:1.0 
8.0 3:7.1744857528587085 37:1.0 
8.0 3:0.18679613698285516 8:1.0 
-8.0 3:7.8992797379989055 27:1.0 
8.0 3:0.3883579884298007 8:1.0 
8.0 3:0.3883579884298007 8:1.0 
8.0 3:6.7584575616968126 22:1.0 
-6.836134369124919 1:1.0 3:10.316442735700386 40:1.0 
-8.0 1:1.0 3:5.741399338227508 16:1.0 
-8.0 3:7.392763815705994 39:1.0 
-8.0 3:5.741399338227508 40:1.0 
-7.963784253432832 3:3.2156706939192525 73:1.0 
-8.0 3:13.928361148678192 40:1.0 
-8.0 3:7.1744857528587085 66:1.0 
-8.0 3:11.608791483977749 40:1.0 
8.0 3:2.908185994171292 33:1.0 
8.0 3:10.096504315335125 39:1.0 
8.0 3:5.541969745315614 74:1.0 
8.0 3:11.752155829283891 40:1.0 
8.0 3:5.541969745315614 66:1.0 
8.0 3:6.434546518787453 39:1.0 
8.0 3:2.770984872657807 5:1.0 
8.0 3:3.138709652783124 16:1.0 
-8.0 3:0.20477882418410742 8:1.0 
-8.0 3:4.48863636973214 
-8.0 3:19.538956130637043 39:1.0 
1.6030306959032081 3:31.420454588124976 63:1.0 
-0.39841206724124556 3:10.08573796608653 117:1.0 
8.0 3:15.25635732406096 39:1.0 67:1.0 
-8.0 3:13.928361148678192 51:1.0 
4.961716745580518 3:15.841593780271564 40:1.0 
-8.0 2:1.0 3:11.482798676455015 72:1.0 
-6.51712313395533 3:4.372102553476188 
8.0 3:7.317505331197447 33:1.0 
-8.0 3:6.434546518787453 38:1.0 
-5.983470832587895 3:20.940645237726077 76:1.0 
-8.0 3:6.352899961531942 40:1.0 
-8.0 3:6.352899961531942 38:1.0 
-8.0 3:5.741399338227508 38:1.0 
8.0 3:10.170904882707307 37:1.0 
-5.134600279826722 3:20.940645237726077 61:1.0 
2.893431741977788 3:7.317505331197447 92:1.0 
1.103594539902624 3:31.420454588124976 57:1.0 
-8.0 3:0.12945266280993356 70:1.0 
-8.0 3:0.006430873707948786 48:1.0 
-8.0 3:1.635550842241764 39:1.0 
-8.0 3:2.0278272715232 58:1.0 
8.0 3:5.033587144854496 38:1.0 
-3.3547860311327122 3:6.434546518787453 17:1.0 67:1.0 
8.0 3:0.3686018835313934 8:1.0 
8.0 3:3.661957796547672 
8.0 3:1.8293763327993617 40:1.0 
8.0 3:4.724202343277343 84:1.0 
-8.0 3:7.62817866203048 63:1.0 
-8.0 3:4.587815221047071 38:1.0 
-8.0 3:0.2199384203652614 29:1.0 
-8.0 2:1.0 3:12.227812361115893 63:1.0 
8.0 3:4.400880028380388 16:1.0 
0.46146301532554956 3:19.39689410860465 40:1.0 
-1.2016575263938054 3:1.6809563276810884 35:1.0 
8.0 2:1.0 3:20.34014448638418 65:1.0 
8.0 3:4.400880028380388 16:1.0 
-8.0 3:5.335934230119343 27:1.0 
8.0 3:2.851027580331343 63:1.0 
-8.0 3:4.587815221047071 38:1.0 
-8.0 2:1.0 3:8.162923356249436 51:1.0 
0.37206880774322265 3:22.167878981262454 40:1.0 
-8.0 3:4.48863636973214 73:1.0 
-8.0 3:4.036651245989082 40:1.0 
8.0 3:2.6968769005040847 26:1.0 
8.0 3:19.79431381714982 16:1.0 
-8.0 3:10.17007224319209 27:1.0 
8.0 3:0.11327107995869187 8:1.0 
-8.0 3:3.9496398689994527 39:1.0 
8.0 3:5.005441772126255 63:1.0 
8.0 3:6.980215079242026 40:1.0 
8.0 3:7.739194322651833 39:1.0 
8.0 3:5.876077914641946 16:1.0 
8.0 3:3.7954891891721947 39:1.0 
8.0 3:10.08573796608653 63:1.0 
-8.0 3:11.632743976685168 66:1.0 
8.0 3:5.335934230119343 
8.0 3:5.741399338227508 45:1.0 
8.0 3:1.8293763327993617 39:1.0 
8.0 3:7.920796890135782 40:1.0 
8.0 3:8.801760056760775 22:1.0 
-8.0 3:13.02597075375803 39:1.0 
8.0 3:10.08573796608653 63:1.0 
4.427010022618292 3:10.170904882707307 39:1.0 67:1.0 
-8.0 1:1.0 3:12.869093037574906 40:1.0 
8.0 3:0.06472633140496678 70:1.0 
-4.934487024396077 1:1.0 3:6.434546518787453 24:1.0 
-8.0 3:11.482798676455015 40:1.0 
-8.0 3:6.434546518787453 40:1.0 
-8.0 3:2.391495250952903 90:1.0 
8.0 3:8.162923356249436 40:1.0 
8.0 3:5.048252157667562 39:1.0 
8.0 3:8.97727273946428 57:1.0 
-8.0 3:4.237321941451234 39:1.0 
-8.0 3:9.900996112669727 57:1.0 67:1.0 
-8.0 2:1.0 3:6.598104605716607 63:1.0 
-8.0 2:1.0 3:10.096504315335125 40:1.0 
8.0 3:11.00220007095097 16:1.0 
-8.0 3:9.900996112669727 40:1.0 
8.0 3:4.48863636973214 66:1.0 
-8.0 2:1.0 3:12.869093037574906 64:1.0 
-8.0 2:1.0 3:5.335934230119343 63:1.0 
-8.0 2:1.0 3:4.825108606353353 40:1.0 
-8.0 3:4.207626357002244 39:1.0 
-6.274995190006522 2:1.0 3:3.9496398689994527 66:1.0 67:1.0 
-8.0 2:1.0 3:10.316442735700386 66:1.0 
-8.0 3:4.207626357002244 39:1.0 
-8.0 3:4.131961425793407 40:1.0 
-7.355335686970132 3:3.8255158834768257 42:1.0 
-7.988242740910837 3:2.0525198841135714 
-8.0 3:10.316442735700386 66:1.0 
-8.0 3:9.146881663996808 39:1.0 
-8.0 3:9.843192000664347 36:1.0 
-8.0 3:4.701036204995612 63:1.0 
-8.0 2:1.0 3:8.162923356249436 40:1.0 
-0.11398870607281655 3:4.48863636973214 117:1.0 
-5.646335505561775 3:11.881195335203673 67:1.0 117:1.0 
-8.0 3:3.7954891891721947 39:1.0 
-8.0 3:0.20477882418410742 8:1.0 
-8.0 3:2.1170584052511425 27:1.0 
8.0 3:2.3074121337423614 39:1.0 
8.0 3:3.5441747608912886 39:1.0 67:1.0 
8.0 3:7.323915593095344 22:1.0 
8.0 3:2.718793845197836 36:1.0 
8.0 3:8.801760056760775 22:1.0 
-8.0 3:11.881195335203673 40:1.0 
8.0 3:5.085452441353653 39:1.0 67:1.0 
8.0 3:6.512985376879015 39:1.0 
6.462402484353838 3:1.8293763327993617 118:1.0 
8.0 3:2.718793845197836 66:1.0 
-8.0 3:5.940597667601836 40:1.0 
8.0 3:11.00220007095097 16:1.0 
8.0 3:10.096504315335125 45:1.0 
-6.344042532855753 2:1.0 3:10.88389780833258 65:1.0 
8.0 3:6.826990306283344 
8.0 3:7.088349521782577 74:1.0 
8.0 3:2.6968769005040847 43:1.0 
8.0 3:6.352899961531942 22:1.0 
8.0 3:1.6453274620118925 39:1.0 
8.0 3:5.048252157667562 45:1.0 
-8.0 3:8.97727273946428 16:1.0 
-8.0 3:6.434546518787453 39:1.0 
-8.0 3:0.45051341320503635 8:1.0 
-8.0 3:7.452992635370486 27:1.0 
8.0 3:8.97727273946428 40:1.0 
-8.0 3:2.745667064673517 27:1.0 
8.0 1:1.0 3:8.97727273946428 16:1.0 
8.0 3:3.5803112392921608 
8.0 3:7.739194322651833 39:1.0 
8.0 3:8.814116871962918 22:1.0 
8.0 3:5.048252157667562 67:1.0 
8.0 3:2.3074121337423614 39:1.0 
8.0 3:5.937621231975453 73:1.0 
-8.0 3:3.118698391172603 47:1.0 
-8.0 3:4.844807209417969 22:1.0 
5.10237997702597 2:1.0 3:13.755256980933849 63:1.0 
-8.0 3:6.515599925238413 16:1.0 
-8.0 3:1.4509398970791167 67:1.0 98:1.0 
-8.0 3:4.288174155278124 66:1.0 
8.0 3:13.465909109196419 40:1.0 
8.0 1:1.0 3:13.465909109196419 16:1.0 
-8.0 3:2.720974452083145 
8.0 3:7.567570540077922 39:1.0 
8.0 3:1.4509398970791167 27:1.0 
8.0 3:0.032154368539743926 48:1.0 
8.0 48:1.0 
3.5341379158298087 2:1.0 3:20.632885471400773 51:1.0 
-8.0 3:6.687008130858274 65:1.0 
-7.249728365391301 3:1.1197322088140012 60:1.0 
-8.0 3:4.678047586758904 47:1.0 
-8.0 3:4.844807209417969 16:1.0 
-8.0 3:4.288174155278124 66:1.0 
-8.0 3:0.19417899421490034 8:1.0 
-8.0 3:5.61059498195885 22:1.0 
8.0 48:1.0 
-8.0 3:4.036651245989082 39:1.0 
8.0 3:16.00780269035803 16:1.0 
1.6784482669430443 3:22.96559735291003 40:1.0 
-8.0 3:12.409368034448997 16:1.0 67:1.0 
-8.0 3:4.131961425793407 43:1.0 
8.0 48:1.0 
-8.0 3:8.97727273946428 65:1.0 
-8.0 3:1.809573705503182 
-5.568760382252938 3:1.567654740420287 35:1.0 
-6.0402762145542175 3:6.434546518787453 16:1.0 
-8.0 3:3.7954891891721947 39:1.0 
-8.0 3:5.048252157667562 22:1.0 
8.0 3:3.7954891891721947 66:1.0 
8.0 48:1.0 
-8.0 3:4.35281969123735 43:1.0 
8.0 1:1.0 3:4.48863636973214 57:1.0 
8.0 3:4.48863636973214 40:1.0 
-8.0 3:6.434546518787453 40:1.0 
8.0 1:1.0 3:6.8776284904669245 40:1.0 
8.0 1:1.0 3:12.869093037574906 40:1.0 
8.0 1:1.0 3:4.48863636973214 16:1.0 
8.0 3:3.138709652783124 38:1.0 
8.0 3:12.395884277380222 71:1.0 
8.0 3:4.131961425793407 5:1.0 
8.0 48:1.0 
-8.0 3:3.9496398689994527 39:1.0 
8.0 2:1.0 3:10.096504315335125 66:1.0 
8.0 0:1.0 3:1.7431986365583094 65:1.0 
8.0 3:4.48863636973214 40:1.0 
8.0 1:1.0 3:4.48863636973214 16:1.0 
8.0 3:3.5441747608912886 
-8.0 3:0.003215436853974393 48:1.0 
8.0 3:3.343504065429137 39:1.0 
8.0 3:4.131961425793407 39:1.0 
8.0 3:5.541969745315614 84:1.0 
8.0 3:0.5939048614140549 29:1.0 
8.0 3:3.8695971613259164 35:1.0 
-8.0 3:4.036651245989082 39:1.0 
8.0 3:3.176449980765971 22:1.0 
-8.0 3:3.9496398689994527 22:1.0 67:1.0 
8.0 2:1.0 3:4.355104977107617 63:1.0 
-8.0 3:4.131961425793407 35:1.0 67:1.0 
8.0 2:1.0 3:3.4388142452334622 22:1.0 
8.0 2:1.0 3:3.2990523028583034 40:1.0 
-5.582147498158003 3:2.9688106159877266 73:1.0 
8.0 3:8.97727273946428 40:1.0 
-8.0 3:2.745667064673517 27:1.0 
8.0 1:1.0 3:13.465909109196419 16:1.0 
8.0 3:3.5803112392921608 
8.0 3:7.739194322651833 39:1.0 
8.0 3:8.814116871962918 22:1.0 
5.125448230803573 3:15.798559475997811 22:1.0 67:1.0 
-0.4181491289148994 2:1.0 3:17.420419908430468 74:1.0 
-8.0 3:8.90643184796318 73:1.0 
-8.0 3:4.844807209417969 22:1.0 
8.0 3:3.138709652783124 38:1.0 
8.0 48:1.0 
7.717450498570359 2:1.0 3:13.755256980933849 63:1.0 
-8.0 3:6.515599925238413 16:1.0 
8.0 3:1.4509398970791167 67:1.0 98:1.0 
-8.0 3:4.288174155278124 66:1.0 
8.0 48:1.0 
8.0 2:1.0 3:6.8776284904669245 16:1.0 
-8.0 3:0.09017744543999905 8:1.0 
-8.0 3:6.066698274250595 
8.0 48:1.0 
-8.0 3:6.734675330283082 69:1.0 
-8.0 3:1.834501869913303 38:1.0 
-4.272199816503434 3:4.237072444413152 36:1.0 
8.0 3:3.2564926884395073 37:1.0 
8.0 3:2.650356884869192 58:1.0 
8.0 3:5.335934230119343 40:1.0 
8.0 3:1.9918952622971366 38:1.0 
8.0 3:1.258396786213624 5:1.0 
8.0 3:2.374103508241034 38:1.0 
-8.0 3:3.39002408106403 22:1.0 
8.0 3:3.726496317685243 66:1.0 
8.0 3:8.97727273946428 40:1.0 
8.0 1:1.0 3:13.465909109196419 16:1.0 
-0.34571409988087043 3:3.2285299063648325 
3.256906243538562 2:1.0 3:7.336687416669536 119:1.0 
8.0 3:5.741399338227508 98:1.0 
8.0 3:8.162923356249436 39:1.0 
-8.0 3:8.90643184796318 73:1.0 
8.0 3:4.457359885227855 37:1.0 
-7.903721780660191 3:0.09418721505970107 16:1.0 
8.0 3:6.237396782345206 47:1.0 
8.0 3:1.1197322088140012 60:1.0 
-8.0 3:7.8728117153041985 22:1.0 
8.0 3:4.237321941451234 38:1.0 
-8.0 3:3.726496317685243 22:1.0 
8.0 3:2.464254605235331 37:1.0 67:1.0 
8.0 3:6.512985376879015 38:1.0 
-8.0 3:7.8728117153041985 22:1.0 
-0.0456935794843649 3:1.9614090089853715 60:1.0 
8.0 3:7.480793309278467 69:1.0 
-0.062262542652286756 3:1.4653866776058353 51:1.0 
8.0 3:11.875242463950906 16:1.0 
8.0 3:17.22419801468252 39:1.0 
0.03133730228371693 3:16.14660498395633 66:1.0 
-8.0 2:1.0 3:6.8776284904669245 63:1.0 
-8.0 3:0.12286729451046446 8:1.0 
8.0 3:2.275663435427781 
-8.0 3:8.710209954215234 43:1.0 
-8.0 3:10.671868460238686 66:1.0 
8.0 3:10.671868460238686 65:1.0 
8.0 3:1.2640625237493013 40:1.0 
-0.018273154131414608 1:1.0 3:3.7954891891721947 40:1.0 
8.0 3:12.109953737967247 26:1.0 
-8.0 3:4.825108606353353 38:1.0 
-8.0 3:16.00780269035803 22:1.0 
-8.0 3:11.516793829192158 5:1.0 
-8.0 3:4.131961425793407 5:1.0 
-8.0 3:4.237321941451234 42:1.0 
8.0 3:4.825108606353353 66:1.0 
8.0 3:0.9062646150659454 77:1.0 
-8.0 3:0.579474596585026 38:1.0 
8.0 3:2.4833028002060256 74:1.0 
-8.0 3:0.012861747415897571 48:1.0 
8.0 3:5.905915200398608 77:1.0 
-8.0 2:1.0 3:6.8776284904669245 63:1.0 
-8.0 3:8.263922851586814 16:1.0 
8.0 3:5.541969745315614 40:1.0 
8.0 3:8.162923356249436 120:1.0 
8.0 2:1.0 3:11.635946660563139 40:1.0 
8.0 2:1.0 3:13.516915123393625 63:1.0 
-3.8738360795314954 3:1.359396922598918 5:1.0 
-0.08614837270407265 3:4.131961425793407 
-0.031752373056271974 3:2.1663059463731247 28:1.0 
-8.0 3:3.343504065429137 112:1.0 
-8.0 3:5.049573753975586 16:1.0 
8.0 3:3.4768475795101557 26:1.0 
-8.0 3:5.741399338227508 40:1.0 
8.0 3:30.289512946005374 39:1.0 
8.0 3:4.355104977107617 39:1.0 
-8.0 3:3.1023420086122493 40:1.0 
-8.0 3:8.97727273946428 5:1.0 
-1.7000537514940945 3:8.97727273946428 26:1.0 121:1.0 
8.0 2:1.0 3:3.726496317685243 40:1.0 
0.6261455309056176 1:1.0 3:95.91679099568368 42:1.0 
8.0 3:1.4441139320087168 40:1.0 
8.0 3:5.541969745315614 40:1.0 
8.0 3:10.88389780833258 16:1.0 
-8.0 3:13.928361148678192 39:1.0 
-0.0040809286474946275 1:1.0 3:58.69527653131277 64:1.0 67:1.0 
-8.0 3:3.1023420086122493 40:1.0 
8.0 3:8.724557982513875 42:1.0 
-8.0 3:8.020039209281672 39:1.0 
-4.331079159933711 3:1.158949193170052 
-0.056868790088350406 3:4.291800638525983 10:1.0 
-0.005253974952132074 48:1.0 
-0.8484521300607849 3:2.317898386340104 65:1.0 
-8.0 3:2.0907410969337694 16:1.0 
-8.0 3:0.26409109021714006 10:1.0 
-0.9807209182514288 3:1.2112018023544922 
-8.0 3:13.484384502520424 40:1.0 
-8.0 3:0.6552922373891438 8:1.0 
-1.8791313750153342 3:1.4306002128419941 10:1.0 
-0.15331103501679746 3:6.8776284904669245 45:1.0 
-2.2616567115163155 3:5.335934230119343 37:1.0 
4.3997429312617236 1:1.0 3:33.87293448401828 73:1.0 
-8.0 3:6.997345278456861 16:1.0 
-8.0 3:4.039659003180469 26:1.0 
-8.0 3:0.6552922373891438 8:1.0 
8.0 3:0.3883579884298007 8:1.0 
-7.417833160437399 3:1.9801992225339455 33:1.0 
8.0 3:9.100047411375893 51:1.0 
8.0 3:9.00167794290692 39:1.0 
-8.0 3:3.661957796547672 22:1.0 
-0.23583946554309526 3:2.0778376920978614 67:1.0 
-6.545849515953188 3:6.434546518787453 33:1.0 
8.0 3:0.2910318128062137 12:1.0 
-8.0 3:6.997345278456861 22:1.0 
-4.429406874414518 3:2.7187454071072525 122:1.0 
-8.0 3:7.8992797379989055 97:1.0 
-5.858456996106139 3:6.997345278456861 51:1.0 
-8.0 3:3.1023420086122493 40:1.0 
-0.2572043928213331 1:1.0 3:67.55152048894693 17:1.0 
-8.0 3:3.067250688800979 40:1.0 
0.5267008558244206 1:1.0 3:55.530773734343185 17:1.0 67:1.0 
8.0 3:5.44194890416629 63:1.0 
8.0 3:1.4441139320087168 40:1.0 
8.0 3:5.541969745315614 77:1.0 
8.0 3:0.8797536814610456 29:1.0 
-2.450181992782743 3:4.678047586758904 35:1.0 
0.29764796263206933 1:1.0 3:27.52175926826485 51:1.0 
-8.0 3:3.9496398689994527 
8.0 3:0.6634448969009095 8:1.0 
8.0 3:0.6634448969009095 8:1.0 
-8.0 3:2.782242803736413 22:1.0 
-0.8580680671997382 3:2.5633455078795624 44:1.0 81:1.0 
8.0 3:8.062823643963421 22:1.0 
-8.0 3:6.066698274250595 39:1.0 
-0.4858510785974664 3:2.2036090423641617 46:1.0 
8.0 3:11.083939490631227 63:1.0 
0.40393448090184597 3:33.4478084909473 96:1.0 
-8.0 3:11.608791483977749 39:1.0 
1.752360697483806 3:46.074271891586754 40:1.0 
-8.0 3:1.8102348625520597 5:1.0 
-8.0 3:8.710209954215234 40:1.0 
-8.0 3:6.120292092345043 24:1.0 
-8.0 3:7.753196751232184 39:1.0 
1.926274672525596 3:33.4478084909473 74:1.0 
-8.0 3:4.531323075329727 63:1.0 
-0.8843981555851679 0:1.0 3:3.5441747608912886 85:1.0 
-0.026485383562002657 3:4.671328247805603 45:1.0 
-8.0 3:1.8102348625520597 5:1.0 
-0.7301900135329682 3:1.3196305221915683 29:1.0 
-0.1434949257455963 1:1.0 3:5.335934230119343 17:1.0 
-6.2475205253514625 3:9.416128958349372 35:1.0 
-7.815415913706075 3:0.3542685356571391 9:1.0 
-8.0 3:2.957438922372385 22:1.0 
-8.0 3:4.671328247805603 45:1.0 
-8.0 3:12.315119304681428 16:1.0 
-0.006898626317950297 48:1.0 
-8.0 3:5.488128998398086 22:1.0 
-8.0 3:10.51906589250561 5:1.0 
-8.0 3:10.51906589250561 5:1.0 
4.719348797851844 3:38.7937882172093 66:1.0 
-7.840840420756622 3:1.5148721261926759 35:1.0 
8.0 3:8.919415597585948 63:1.0 
-3.008846602338593 3:4.671328247805603 45:1.0 
-8.0 3:5.488128998398086 22:1.0 
-8.0 3:10.51906589250561 5:1.0 
8.0 3:21.233443959877082 16:1.0 
-8.0 3:2.275663435427781 66:1.0 
-3.003121501534975 3:1.4647332192114526 48:1.0 
8.0 1:1.0 3:19.053525647260283 51:1.0 
-8.0 3:6.001118628604614 86:1.0 
-1.4066045675043906 3:2.522523513359307 66:1.0 
-8.0 3:4.131961425793407 5:1.0 
-8.0 1:1.0 3:19.30363955636236 16:1.0 
-8.0 3:4.080194728230029 39:1.0 
8.0 3:16.325846712498873 16:1.0 
-8.0 3:2.317898386340104 38:1.0 
8.0 3:1.4441139320087168 40:1.0 
8.0 3:5.541969745315614 40:1.0 
8.0 3:10.88389780833258 16:1.0 
8.0 3:13.928361148678192 39:1.0 
-0.3157207070341376 1:1.0 3:58.69527653131277 64:1.0 67:1.0 
-8.0 3:3.1023420086122493 40:1.0 
8.0 3:8.724557982513875 42:1.0 
-8.0 3:8.020039209281672 39:1.0 
-8.0 3:1.158949193170052 
-1.9865489957899196 3:4.291800638525983 10:1.0 
-8.0 3:12.947282398628387 66:1.0 
8.0 1:1.0 3:4.234116810502285 85:1.0 
-8.0 3:4.038612585261898 16:1.0 
-8.0 3:10.789401998856988 37:1.0 
8.0 48:1.0 
8.0 3:11.635946660563139 40:1.0 
-8.0 3:3.5441747608912886 40:1.0 
8.0 3:8.474643882902468 63:1.0 
8.0 3:0.5501738169422177 8:1.0 
-8.0 3:11.848919606998358 22:1.0 
-8.0 3:4.48863636973214 44:1.0 
2.77513457571434 1:1.0 3:9.285574099118795 65:1.0 67:1.0 
-8.0 3:4.038612585261898 16:1.0 
8.0 2:1.0 3:11.635946660563139 40:1.0 
8.0 48:1.0 
-8.0 3:10.80399952419371 39:1.0 
-8.0 3:2.770984872657807 22:1.0 
-0.8403899143623396 3:1.4239112246911974 45:1.0 
-8.0 3:3.1750044681459766 51:1.0 
-8.0 3:4.355104977107617 44:1.0 
8.0 3:0.5501738169422177 8:1.0 
-8.0 3:4.825108606353353 22:1.0 
-8.0 3:3.39002408106403 39:1.0 
-0.34342539980989906 3:0.87948708876911 123:1.0 
4.30508004355191 3:18.395188203119936 39:1.0 
-1.6880461080815508 3:8.277115128379618 8:1.0 
-7.848429573208717 3:8.277115128379618 8:1.0 
-2.126481682455211 3:3.0299624332507222 46:1.0 
-8.0 3:5.335934230119343 
-8.0 3:3.7954891891721947 74:1.0 
-8.0 3:4.928509210470662 5:1.0 
-8.0 3:21.682753452470735 40:1.0 
8.0 3:21.25328909610463 24:1.0 
8.0 3:21.25328909610463 24:1.0 
-8.0 3:21.682753452470735 40:1.0 
-8.0 3:2.522523513359307 27:1.0 
8.0 3:0.37217640557855897 8:1.0 
1.5115993953703721 3:21.265048565347733 66:1.0 
-8.0 3:3.5441747608912886 22:1.0 
-0.23093407705656757 48:1.0 
-0.5332885704519345 3:4.355104977107617 96:1.0 
-1.0615011624037807 3:5.211810244596716 76:1.0 
8.0 3:22.29853899396487 83:1.0 
-8.0 3:6.435260209870001 66:1.0 
-3.012609644461311 3:3.8695971613259164 43:1.0 
-8.0 3:4.818389656104608 16:1.0 
0.041753511659637026 3:22.29853899396487 40:1.0 
8.0 3:2.391495250952903 63:1.0 
8.0 3:4.036651245989082 40:1.0 
-8.0 3:2.912144141285529 22:1.0 
7.968090441810337 3:21.265048565347733 17:1.0 
-0.5169906889152598 3:2.0721187313134237 28:1.0 
8.0 3:0.2318848597028547 9:1.0 
-8.0 3:4.436158383558578 66:1.0 
-8.0 2:1.0 3:7.590978378344389 40:1.0 
-8.0 2:1.0 3:7.202666349462474 65:1.0 
8.0 3:1.6896143904242031 26:1.0 
-8.0 2:1.0 3:6.434546518787453 40:1.0 
-8.0 2:1.0 3:5.741399338227508 16:1.0 
-8.0 2:1.0 3:12.869093037574906 40:1.0 
-8.0 3:1.1757410553152152 40:1.0 
8.0 3:7.088349521782577 16:1.0 
0.014221256837710496 3:95.03511279324836 38:1.0 
-8.0 3:7.739194322651833 22:1.0 
-1.1935105121534189 3:3.869473696914376 5:1.0 
8.0 3:2.886827535347935 39:1.0 
-8.0 2:1.0 3:4.6804039131307045 22:1.0 
8.0 3:3.8695971613259164 39:1.0 67:1.0 
-8.0 3:3.2990523028583034 
-8.0 3:0.18679613698285516 8:1.0 
-8.0 3:3.149468228851562 22:1.0 
-0.14909204746589805 3:1.888234649612894 16:1.0 
8.0 3:5.816371988342584 66:1.0 
-8.0 3:8.090630701512254 22:1.0 
-0.018873887346168218 3:0.7274362540385775 32:1.0 
-7.513725652321401 3:0.12286729451046446 8:1.0 
-8.0 3:8.474643882902468 26:1.0 
-8.0 3:13.06531493132285 63:1.0 
-0.0033315416054844563 48:1.0 
-8.0 3:2.464254605235331 38:1.0 
1.5731683879813168 3:11.811830400797216 124:1.0 
8.0 3:9.89715690857491 40:1.0 
-8.0 3:5.741399338227508 40:1.0 
2.571588975471688 3:6.434546518787453 41:1.0 
-8.0 3:4.131961425793407 16:1.0 
8.0 2:1.0 3:2.5857659245695865 40:1.0 
-6.746204807709898 2:1.0 3:5.048252157667562 63:1.0 
-8.0 3:0.21900236749714053 8:1.0 
-8.0 3:5.749336980093353 
-8.0 3:6.434546518787453 39:1.0 
-0.2781752100180744 3:86.77118994166155 40:1.0 
-8.0 3:2.851027580331343 22:1.0 
8.0 3:0.42072115413228406 8:1.0 
-8.0 3:0.579474596585026 38:1.0 
8.0 3:6.515599925238413 5:1.0 
-8.0 3:1.7160476474923585 
-8.0 3:3.490107539621013 39:1.0 
8.0 3:4.714018149763468 22:1.0 
8.0 3:3.277511946381424 72:1.0 
8.0 3:3.661957796547672 58:1.0 
8.0 3:3.9837905245942733 58:1.0 
-7.412696451335233 3:0.0257649844114283 10:1.0 
-8.0 3:3.2156706939192525 40:1.0 
8.0 3:5.816371988342584 40:1.0 
8.0 3:2.4833028002060256 
8.0 3:1.6142649531824163 73:1.0 
-8.0 3:4.311050536155789 38:1.0 
-8.0 3:4.928509210470662 38:1.0 
-8.0 3:3.39002408106403 40:1.0 
8.0 3:1.6809563276810884 43:1.0 
-1.0162405612510084 3:3.2990523028583034 39:1.0 
-8.0 3:5.741399338227508 40:1.0 
0.005120726518122048 3:33.05569140634726 40:1.0 
-7.855226804123234 1:1.0 3:5.335934230119343 57:1.0 
8.0 3:0.8972122517689166 16:1.0 
-8.0 3:12.869093037574906 43:1.0 
8.0 3:13.780468800930086 22:1.0 
-8.0 3:6.434546518787453 38:1.0 
-8.0 3:11.635946660563139 16:1.0 80:1.0 
-8.0 3:9.285574099118795 66:1.0 
8.0 3:0.0772949532342849 10:1.0 
8.0 3:21.970967569481868 26:1.0 
3.904951615607752 3:45.45157568372748 77:1.0 
-8.0 3:3.8695971613259164 16:1.0 
8.0 3:5.741399338227508 40:1.0 
8.0 3:5.741399338227508 40:1.0 
8.0 3:5.741399338227508 40:1.0 
8.0 3:4.825108606353353 42:1.0 
-6.018329890313249 3:57.91091866908708 41:1.0 
-8.0 1:1.0 3:12.869093037574906 16:1.0 
-8.0 3:4.036651245989082 40:1.0 
-8.0 3:10.671868460238686 40:1.0 
-8.0 3:6.434546518787453 65:1.0 
-8.0 3:3.39002408106403 72:1.0 
8.0 3:6.8776284904669245 66:1.0 
-8.0 3:25.633704575833704 16:1.0 
-8.0 2:1.0 3:10.096504315335125 40:1.0 
-8.0 3:3.8038940512683945 26:1.0 
0.09679392692849403 3:41.31961425793407 38:1.0 
8.0 3:7.739194322651833 16:1.0 
-8.0 3:0.5509022605910404 46:1.0 
8.0 3:3.5441747608912886 39:1.0 
8.0 3:4.842794859547249 26:1.0 
8.0 3:0.009646310561923178 48:1.0 
8.0 3:0.009646310561923178 48:1.0 
8.0 3:2.5027208860631274 39:1.0 
8.0 3:3.490107539621013 40:1.0 
8.0 3:4.842794859547249 26:1.0 81:1.0 
-5.60606766578589 3:3.6250584602637814 36:1.0 
-8.0 0:1.0 3:14.785527631411988 38:1.0 
8.0 3:14.528384578641747 16:1.0 
-8.0 2:1.0 3:8.6646835920523 40:1.0 
-8.0 3:17.95454547892856 72:1.0 
8.0 3:4.123760485405674 8:1.0 
8.0 3:1.377255651477601 46:1.0 
8.0 3:2.5843989170773947 26:1.0 
8.0 48:1.0 
-8.0 2:1.0 3:8.6646835920523 40:1.0 
8.0 3:8.020039209281672 22:1.0 
-8.0 3:3.343504065429137 40:1.0 
8.0 3:4.489783553522055 22:1.0 67:1.0 
-8.0 3:2.1304814255832834 16:1.0 
-8.0 3:8.90643184796318 40:1.0 
0.05450882586559183 3:103.29903564483519 82:1.0 
-8.0 3:3.39002408106403 22:1.0 
8.0 3:4.489783553522055 63:1.0 
8.0 48:1.0 
-8.0 3:4.564966776251842 16:1.0 
-8.0 3:17.22419801468252 69:1.0 
-8.0 3:19.30363955636236 40:1.0 
-2.2547632343181876 3:4.036651245989082 67:1.0 69:1.0 
-8.0 3:1.2245345842088093 
8.0 3:4.036651245989082 40:1.0 
8.0 3:1.2640625237493013 40:1.0 
-8.0 1:1.0 3:3.7954891891721947 40:1.0 
8.0 1:1.0 3:7.739194322651833 16:1.0 
-8.0 3:4.131961425793407 
8.0 3:0.14563424566117525 8:1.0 
8.0 3:1.8806696271869123 26:1.0 
8.0 3:1.635550842241764 54:1.0 
8.0 3:4.724202343277343 22:1.0 
8.0 3:0.14563424566117525 8:1.0 
-0.46034332624241325 3:3.5263477354633426 51:1.0 
-8.0 3:3.294109552010814 22:1.0 
-8.0 3:13.465909109196419 39:1.0 
-8.0 3:11.608791483977749 68:1.0 
0.39323991430544214 3:20.659807128967035 68:1.0 80:1.0 
8.0 3:1.989316186972312 43:1.0 
8.0 3:14.405332698924948 16:1.0 
8.0 3:0.1288249220571415 10:1.0 
8.0 3:2.3074121337423614 39:1.0 
8.0 3:2.6968769005040847 26:1.0 
-0.026602266852618173 3:2.516793572427248 125:1.0 
-3.726297192598213 3:2.453326263362646 54:1.0 
8.0 3:8.415252714004488 63:1.0 
0.13308566521148468 3:136.35472705118244 40:1.0 
8.0 3:14.041211739392114 16:1.0 
-8.0 3:4.036651245989082 39:1.0 
8.0 3:6.434546518787453 73:1.0 
8.0 3:2.391495250952903 43:1.0 
8.0 3:2.103813178501122 40:1.0 
-8.0 3:7.359978790087938 16:1.0 
-8.0 3:0.24573458902092893 8:1.0 
-8.0 3:1.3046478038643796 
8.0 3:8.073302491978165 27:1.0 
8.0 3:0.2589053256198671 8:1.0 
-0.1671800073470767 3:1.8293763327993617 18:1.0 
-8.0 3:2.745667064673517 66:1.0 
8.0 3:6.001118628604614 71:1.0 
8.0 2:1.0 3:16.15188493619653 51:1.0 
-3.0153170024323495 3:1.574734114425781 22:1.0 
-0.10646111173636491 3:1.9236870122706031 27:1.0 
8.0 3:0.2589053256198671 8:1.0 
8.0 0:1.0 3:6.8776284904669245 38:1.0 
-8.0 3:0.016077184269871963 48:1.0 
8.0 3:3.661957796547672 40:1.0 
8.0 3:3.726496317685243 22:1.0 
-5.752380002322428 3:7.359978790087938 42:1.0 
-8.0 3:3.432095294984717 40:1.0 
-8.0 3:3.39002408106403 40:1.0 
-8.0 3:4.0556545430464 40:1.0 
